{"learner":{"attributes":{"best_iteration":"99","best_ntree_limit":"100","scikit_learn":"{\"n_estimators\": 100, \"objective\": \"reg:squarederror\", \"max_depth\": null, \"max_leaves\": null, \"max_bin\": null, \"grow_policy\": null, \"learning_rate\": null, \"verbosity\": null, \"booster\": null, \"tree_method\": null, \"gamma\": null, \"min_child_weight\": null, \"max_delta_step\": null, \"subsample\": null, \"sampling_method\": null, \"colsample_bytree\": null, \"colsample_bylevel\": null, \"colsample_bynode\": null, \"reg_alpha\": null, \"reg_lambda\": null, \"scale_pos_weight\": null, \"base_score\": null, \"missing\": NaN, \"num_parallel_tree\": null, \"random_state\": null, \"n_jobs\": null, \"monotone_constraints\": null, \"interaction_constraints\": null, \"importance_type\": null, \"gpu_id\": null, \"validate_parameters\": null, \"predictor\": null, \"enable_categorical\": false, \"max_cat_to_onehot\": null, \"eval_metric\": null, \"early_stopping_rounds\": null, \"callbacks\": null, \"_estimator_type\": \"regressor\"}"},"feature_names":["JobSatisfaction","YearsAtCompany","NumCompaniesWorked","Healthcare Representative","Human Resources","Laboratory Technician","Manager","Manufacturing Director","Research Director","Research Scientist","Sales Executive","Sales Representative","Female","Male"],"feature_types":["float","float","float","float","float","float","float","float","float","float","float","float","float","float"],"gradient_booster":{"model":{"gbtree_model_param":{"num_parallel_tree":"1","num_trees":"100","size_leaf_vector":"0"},"tree_info":[0,0,0,0,0,0,0,0,0,0,0,0,0,0,0,0,0,0,0,0,0,0,0,0,0,0,0,0,0,0,0,0,0,0,0,0,0,0,0,0,0,0,0,0,0,0,0,0,0,0,0,0,0,0,0,0,0,0,0,0,0,0,0,0,0,0,0,0,0,0,0,0,0,0,0,0,0,0,0,0,0,0,0,0,0,0,0,0,0,0,0,0,0,0,0,0,0,0,0,0],"trees":[{"base_weights":[-3.458297E-1,-1.670061E-1,-3.7546593E-1,-1.5765766E-2,-2.9074073E-1,-3.9302424E-1,-3.061564E-1,1.5075377E-2,-2.7083334E-1,-3.442623E-1,-1.7613636E-1,-3.9416525E-1,3.75E-1,-3.2482395E-1,1.4705882E-2,1.5294118E-1,-8.695652E-2,3.3333334E-1,-3.409091E-1,-2.8629032E-1,-4.5833334E-1,1.5625E-1,-2.4657534E-1,-3.452188E-1,-4.1137412E-1,-1.919192E-1,-3.5212767E-1,1.7307693E-1,-4.4444445E-1,2.6415095E-1,-3.0303031E-2,-1.4795919E-1,2.5E-1,-4.5454547E-1,-2.0833333E-1,-1.9166666E-1,-3.6923078E-1,-4.8979592E-1,-2.9166666E-1,4.4444445E-1,-1.875E-1,-3.1578946E-1,-0E0,-3.567753E-1,-1.4285715E-1,-3.9992088E-1,-4.4136462E-1,2E-1,-2.5882354E-1,-3.576017E-1,3.75E-1,-1.875E-1,3.1578946E-1,3.0208334E-1,-8.3333336E-2,2.3529412E-1,-2.9411766E-1,-9.411765E-2,-4.642857E-1,3.4375E-1,-3.3333334E-1,-4E-1,-6.25E-2,-2.5490198E-1,1.5E-1,-4.84375E-1,-2.5E-1,1.25E-1,-4.4444445E-1,3.3333334E-1,-4.1666666E-1,-3.425926E-1,1.25E-1,-4.2857143E-1,2.7272728E-1,-3.300248E-1,-4.1436464E-1,9.090909E-2,-2.4E-1,-4.18435E-1,-3.7181997E-1,-4.4863012E-1,-3.28125E-1,3.0769232E-1,-3.3333334E-1,-3.0405405E-1,4.1666668E-2,-3.715278E-1,-1.8055555E-1,3.3333334E-1,-4.1666666E-1,-2E-1,4.6666667E-1],"categories":[],"categories_nodes":[],"categories_segments":[],"categories_sizes":[],"default_left":[1,1,1,1,1,1,1,1,1,1,1,1,0,1,1,1,1,0,1,1,1,1,1,1,1,1,1,1,0,1,1,1,1,0,1,1,1,0,1,0,1,1,1,1,1,1,1,1,1,1,0,1,1,0,0,0,0,0,0,0,0,0,0,0,0,0,0,0,0,0,0,0,0,0,0,0,0,0,0,0,0,0,0,0,0,0,0,0,0,0,0,0,0],"id":0,"left_children":[1,3,5,7,9,11,13,15,17,19,21,23,-1,25,27,29,31,-1,33,35,37,39,41,43,45,47,49,51,-1,53,55,57,59,-1,61,63,65,-1,67,-1,69,71,73,75,77,79,81,83,85,87,-1,89,91,-1,-1,-1,-1,-1,-1,-1,-1,-1,-1,-1,-1,-1,-1,-1,-1,-1,-1,-1,-1,-1,-1,-1,-1,-1,-1,-1,-1,-1,-1,-1,-1,-1,-1,-1,-1,-1,-1,-1,-1],"loss_changes":[1.81734E1,9.183827E0,3.4709167E0,1.7504625E0,1.5954895E0,2.2080383E0,3.6045952E0,2.8125744E0,1.1297349E0,1.078949E0,2.0988677E0,1.8357544E0,0E0,1.9935722E0,2.549271E0,1.740181E0,2.400843E0,0E0,2.3674226E-1,9.0239906E-1,1.7176819E-1,1.6684027E0,1.2458539E0,1.3919449E0,4.18396E-1,2.6476529E0,2.00486E0,1.3971406E0,0E0,7.237618E-1,2.3814616E0,1.62539E0,1.0989583E0,0E0,3.104167E-1,1.3345587E0,7.712736E-1,0E0,8.194444E-1,0E0,1.09375E0,7.162528E-1,2.1038961E0,7.613907E-1,8.1662345E-1,5.020447E-1,2.3866272E-1,9.641026E-1,1.167932E0,1.0843315E0,0E0,1.09375E0,1.5719298E0,0E0,0E0,0E0,0E0,0E0,0E0,0E0,0E0,0E0,0E0,0E0,0E0,0E0,0E0,0E0,0E0,0E0,0E0,0E0,0E0,0E0,0E0,0E0,0E0,0E0,0E0,0E0,0E0,0E0,0E0,0E0,0E0,0E0,0E0,0E0,0E0,0E0,0E0,0E0,0E0],"parents":[2147483647,0,0,1,1,2,2,3,3,4,4,5,5,6,6,7,7,8,8,9,9,10,10,11,11,13,13,14,14,15,15,16,16,18,18,19,19,20,20,21,21,22,22,23,23,24,24,25,25,26,26,27,27,29,29,30,30,31,31,32,32,34,34,35,35,36,36,38,38,40,40,41,41,42,42,43,43,44,44,45,45,46,46,47,47,48,48,49,49,51,51,52,52],"right_children":[2,4,6,8,10,12,14,16,18,20,22,24,-1,26,28,30,32,-1,34,36,38,40,42,44,46,48,50,52,-1,54,56,58,60,-1,62,64,66,-1,68,-1,70,72,74,76,78,80,82,84,86,88,-1,90,92,-1,-1,-1,-1,-1,-1,-1,-1,-1,-1,-1,-1,-1,-1,-1,-1,-1,-1,-1,-1,-1,-1,-1,-1,-1,-1,-1,-1,-1,-1,-1,-1,-1,-1,-1,-1,-1,-1,-1,-1],"split_conditions":[-8.9893574E-1,-4.7686338E-1,7.253132E-1,5E-1,1.1260388E0,5.1199465E0,5E-1,-2.041156E-1,-8.775889E-1,7.0353395E-1,-1.0616082E0,-4.109183E-1,1.12500004E-1,-7.362633E-1,2.3977168E-1,5E-1,5E-1,1.0000001E-1,-2.041156E-1,5E-1,5E-1,-2.041156E-1,2.3282156E0,5E-1,5.6511664E-1,-1.1117651E0,3.7372303E0,-5.7359076E-1,-1.3333334E-1,5E-1,-1.1117651E0,5E-1,7.0353395E-1,-1.3636364E-1,-1.0616082E0,5E-1,-2.041156E-1,-1.4693879E-1,5E-1,1.3333334E-1,1.5267644E0,5E-1,-2.041156E-1,7.0353395E-1,-7.362633E-1,5E-1,3.981239E0,5E-1,5E-1,5E-1,1.12500004E-1,-6.5794045E-1,1.3264015E0,9.0625E-2,-2.5000002E-2,7.058824E-2,-8.8235304E-2,-2.8235296E-2,-1.3928571E-1,1.03125006E-1,-1.0000001E-1,-1.20000005E-1,-1.875E-2,-7.64706E-2,4.5E-2,-1.453125E-1,-7.5E-2,3.75E-2,-1.3333334E-1,1.0000001E-1,-1.25E-1,-1.0277779E-1,3.75E-2,-1.2857144E-1,8.1818186E-2,-9.900745E-2,-1.243094E-1,2.727273E-2,-7.2000004E-2,-1.2553051E-1,-1.11545995E-1,-1.3458905E-1,-9.84375E-2,9.23077E-2,-1.0000001E-1,-9.121622E-2,1.2500001E-2,-1.1145834E-1,-5.4166667E-2,1.0000001E-1,-1.25E-1,-6.0000002E-2,1.4E-1],"split_indices":[1,2,2,11,2,1,8,0,2,0,1,1,0,1,1,12,6,0,0,12,10,0,2,8,1,0,1,1,0,7,0,9,0,0,1,5,0,0,12,0,2,11,0,0,1,12,1,6,5,4,0,0,2,0,0,0,0,0,0,0,0,0,0,0,0,0,0,0,0,0,0,0,0,0,0,0,0,0,0,0,0,0,0,0,0,0,0,0,0,0,0,0,0],"split_type":[0,0,0,0,0,0,0,0,0,0,0,0,0,0,0,0,0,0,0,0,0,0,0,0,0,0,0,0,0,0,0,0,0,0,0,0,0,0,0,0,0,0,0,0,0,0,0,0,0,0,0,0,0,0,0,0,0,0,0,0,0,0,0,0,0,0,0,0,0,0,0,0,0,0,0,0,0,0,0,0,0,0,0,0,0,0,0,0,0,0,0,0,0],"sum_hessian":[3.44E3,4.9E2,2.95E3,2.21E2,2.69E2,2.35E3,6E2,1.98E2,2.3E1,1.82E2,8.7E1,2.347E3,3E0,5.67E2,3.3E1,8.4E1,1.14E2,2E0,2.1E1,1.23E2,5.9E1,1.5E1,7.2E1,6.16E2,1.731E3,9.8E1,4.69E2,2.5E1,8E0,5.2E1,3.2E1,9.7E1,1.7E1,1E1,1.1E1,5.9E1,6.4E1,4.8E1,1.1E1,8E0,7E0,5.6E1,1.6E1,5.82E2,3.4E1,1.263E3,4.68E2,1.4E1,8.4E1,4.66E2,3E0,7E0,1.8E1,4.7E1,5E0,1.6E1,1.6E1,8.4E1,1.3E1,1.5E1,2E0,4E0,7E0,5E1,9E0,3.1E1,3.3E1,3E0,8E0,2E0,5E0,5.3E1,3E0,6E0,1E1,4.02E2,1.8E2,1E1,2.4E1,7.53E2,5.1E2,4.37E2,3.1E1,1.2E1,2E0,7.3E1,1.1E1,4.31E2,3.5E1,2E0,5E0,4E0,1.4E1],"tree_param":{"num_deleted":"0","num_feature":"14","num_nodes":"93","size_leaf_vector":"0"}},{"base_weights":[-2.4255544E-1,-1.18512794E-1,-2.63112E-1,-1.2349234E-2,-2.053639E-1,-2.7538309E-1,-2.14672E-1,-3.630414E-2,1.6200301E-1,-2.4368608E-1,-1.2333747E-1,-2.7623004E-1,2.9062498E-1,-2.2762242E-1,7.990199E-3,4.9891386E-2,-1.027592E-1,2.0696326E-1,-2.6666665E-1,-2.0243374E-1,-3.2487953E-1,1.16145834E-1,-1.7413741E-1,-2.4208757E-1,-2.882333E-1,-2.3088856E-1,2.9062498E-1,1.2326924E-1,-3.2592595E-1,1.04302935E-1,-3.3057854E-1,-1.995594E-1,-1.086315E-2,2.6029414E-1,8.323123E-2,-1.3469116E-1,-2.6185098E-1,-3.4585586E-1,-2.121528E-1,3.2592595E-1,-1.34375E-1,-2.2219786E-1,-2.7501723E-3,-2.180445E-1,-2.962078E-1,-2.7758044E-1,-3.0891353E-1,-1.7959063E-1,-2.6932192E-1,-1.34375E-1,2.2526316E-1,6.33231E-2,3.684375E-1,-2.60915E-1,1.3620916E-1,-2.1737558E-1,4.773521E-2,3.5089287E-1,1.789773E-1,-3.0882353E-1,3.307292E-1,-1.7993078E-1,1.0949998E-1,-3.0556253E-1,-1.0888673E-1,9.687498E-2,-3.2592595E-1,2.6666665E-1,-3.125E-1,-1.4141738E-1,-3.763158E-1,-3.1836733E-1,1.9834712E-1,-1.7794718E-1,-2.8688985E-1,-3.3380997E-1,-1.8036371E-1,-2.684714E-1,-3.6411896E-1,-3.3179367E-1,-2.54508E-1,-6.239724E-2,-2.3924898E-1,-3.0934566E-1,-2.233524E-1,2.6666665E-1,-3.125E-1,-1.52E-1,3.3600003E-1],"categories":[],"categories_nodes":[],"categories_segments":[],"categories_sizes":[],"default_left":[1,1,1,1,1,1,1,1,1,1,1,1,0,1,1,1,1,1,0,1,1,1,1,1,1,1,0,1,0,1,0,1,1,1,1,1,1,0,1,0,1,1,1,1,1,1,1,1,1,1,1,0,0,0,0,0,0,0,0,0,0,0,0,0,0,0,0,0,0,0,0,0,0,0,0,0,0,0,0,0,0,0,0,0,0,0,0,0,0],"id":1,"left_children":[1,3,5,7,9,11,13,15,17,19,21,23,-1,25,27,29,31,33,-1,35,37,39,41,43,45,47,-1,49,-1,51,-1,53,55,57,59,61,63,-1,65,-1,67,69,71,73,75,77,79,81,83,85,87,-1,-1,-1,-1,-1,-1,-1,-1,-1,-1,-1,-1,-1,-1,-1,-1,-1,-1,-1,-1,-1,-1,-1,-1,-1,-1,-1,-1,-1,-1,-1,-1,-1,-1,-1,-1,-1,-1],"loss_changes":[8.742981E0,4.5246906E0,1.6949921E0,9.330847E-1,8.186712E-1,1.2073059E0,1.7348442E0,1.12784E0,5.755636E-1,5.471773E-1,1.0908101E0,8.924713E-1,0E0,1.0285378E0,1.3489567E0,1.8148484E0,9.852389E-1,1.4330375E-1,0E0,4.6384048E-1,6.850195E-2,8.8466495E-1,6.006861E-1,7.382622E-1,2.9582214E-1,1.0655594E0,0E0,7.135016E-1,0E0,7.993079E-1,0E0,1.1480083E0,7.122513E-1,6.2440634E-2,9.754317E-1,6.825292E-1,4.0133762E-1,0E0,4.534828E-1,0E0,6.548177E-1,6.564164E-1,1.1421331E0,1.138731E0,7.54364E-1,8.1113434E-1,6.3754654E-1,1.6980057E0,5.2150536E-1,6.548177E-1,8.448337E-1,0E0,0E0,0E0,0E0,0E0,0E0,0E0,0E0,0E0,0E0,0E0,0E0,0E0,0E0,0E0,0E0,0E0,0E0,0E0,0E0,0E0,0E0,0E0,0E0,0E0,0E0,0E0,0E0,0E0,0E0,0E0,0E0,0E0,0E0,0E0,0E0,0E0,0E0],"parents":[2147483647,0,0,1,1,2,2,3,3,4,4,5,5,6,6,7,7,8,8,9,9,10,10,11,11,13,13,14,14,15,15,16,16,17,17,19,19,20,20,21,21,22,22,23,23,24,24,25,25,27,27,29,29,31,31,32,32,33,33,34,34,35,35,36,36,38,38,40,40,41,41,42,42,43,43,44,44,45,45,46,46,47,47,48,48,49,49,50,50],"right_children":[2,4,6,8,10,12,14,16,18,20,22,24,-1,26,28,30,32,34,-1,36,38,40,42,44,46,48,-1,50,-1,52,-1,54,56,58,60,62,64,-1,66,-1,68,70,72,74,76,78,80,82,84,86,88,-1,-1,-1,-1,-1,-1,-1,-1,-1,-1,-1,-1,-1,-1,-1,-1,-1,-1,-1,-1,-1,-1,-1,-1,-1,-1,-1,-1,-1,-1,-1,-1,-1,-1,-1,-1,-1,-1],"split_conditions":[-8.9893574E-1,-4.7686338E-1,7.253132E-1,5E-1,1.1260388E0,5.1199465E0,5E-1,-2.041156E-1,7.0353395E-1,7.0353395E-1,-1.0616082E0,-4.109183E-1,8.71875E-2,3.7372303E0,2.3977168E-1,5E-1,7.0353395E-1,5E-1,-8E-2,5E-1,5E-1,-2.041156E-1,2.3282156E0,7.0353395E-1,-4.7686338E-1,1.5267644E0,8.71875E-2,-5.7359076E-1,-9.777779E-2,5E-1,-9.917357E-2,5E-1,-1.0616082E0,-2.041156E-1,-2.041156E-1,5E-1,5E-1,-1.0375676E-1,5E-1,9.777779E-2,1.5267644E0,1.9274899E0,-2.041156E-1,5E-1,5E-1,5E-1,3.2458767E-1,-5.7359076E-1,-2.4824579E-1,-6.5794045E-1,1.3264015E0,1.8996932E-2,1.10531256E-1,-7.82745E-2,4.086275E-2,-6.5212674E-2,1.43205635E-2,1.0526787E-1,5.369319E-2,-9.264706E-2,9.921876E-2,-5.3979237E-2,3.2849997E-2,-9.166876E-2,-3.266602E-2,2.9062496E-2,-9.777779E-2,8E-2,-9.375E-2,-4.2425215E-2,-1.1289474E-1,-9.551021E-2,5.950414E-2,-5.3384155E-2,-8.606696E-2,-1.0014299E-1,-5.4109115E-2,-8.054142E-2,-1.092357E-1,-9.95381E-2,-7.63524E-2,-1.8719174E-2,-7.17747E-2,-9.28037E-2,-6.700572E-2,8E-2,-9.375E-2,-4.56E-2,1.00800015E-1],"split_indices":[1,2,2,6,2,1,8,0,0,0,1,1,0,1,1,11,0,12,0,12,10,0,2,0,2,2,0,1,0,3,0,10,1,0,0,5,10,0,12,0,2,2,0,12,10,7,2,1,1,0,2,0,0,0,0,0,0,0,0,0,0,0,0,0,0,0,0,0,0,0,0,0,0,0,0,0,0,0,0,0,0,0,0,0,0,0,0,0,0],"split_type":[0,0,0,0,0,0,0,0,0,0,0,0,0,0,0,0,0,0,0,0,0,0,0,0,0,0,0,0,0,0,0,0,0,0,0,0,0,0,0,0,0,0,0,0,0,0,0,0,0,0,0,0,0,0,0,0,0,0,0,0,0,0,0,0,0,0,0,0,0,0,0,0,0,0,0,0,0,0,0,0,0,0,0,0,0,0,0,0,0],"sum_hessian":[3.44E3,4.9E2,2.95E3,2.21E2,2.69E2,2.35E3,6E2,1.95E2,2.6E1,1.82E2,8.7E1,2.347E3,3E0,5.67E2,3.3E1,8.5E1,1.1E2,2.4E1,2E0,1.23E2,5.9E1,1.5E1,7.2E1,6.16E2,1.731E3,5.64E2,3E0,2.5E1,8E0,7.5E1,1E1,5.3E1,5.7E1,1.6E1,8E0,5.9E1,6.4E1,4.8E1,1.1E1,8E0,7E0,5.6E1,1.6E1,4.3E2,1.86E2,1.152E3,5.79E2,2.44E2,3.2E2,7E0,1.8E1,6.6E1,9E0,4.5E1,8E0,1.2E1,4.5E1,6E0,1E1,3E0,5E0,5E1,9E0,4.9E1,1.5E1,3E0,8E0,2E0,5E0,3.8E1,1.8E1,6E0,1E1,2.74E2,1.56E2,1.39E2,4.7E1,1.046E3,1.06E2,4.04E2,1.75E2,8.3E1,1.61E2,1.68E2,1.52E2,2E0,5E0,4E0,1.4E1],"tree_param":{"num_deleted":"0","num_feature":"14","num_nodes":"89","size_leaf_vector":"0"}},{"base_weights":[-1.7013443E-1,-1.0294119E-1,-1.9011924E-1,-4.4640243E-2,-1.4287353E-1,-1.473176E-1,-2.0066968E-1,-8.520222E-3,-1.2281676E-1,-1.8126974E-1,-9.297319E-2,-2.2400647E-2,-1.666758E-1,-2.0137829E-1,2.2523439E-1,-4.6512322E-4,-3.5801852E-1,-1.7642912E-1,5.877463E-2,-1.9721112E-1,4.7551934E-2,9.463988E-2,-1.293077E-1,-1.11052535E-1,2.709468E-1,-1.787596E-1,8.037913E-2,-2.087691E-1,-1.7121664E-1,8.98526E-2,-2.189382E-2,-3.0647972E-1,-1.03009E-1,-1.4380366E-1,2.4124885E-1,-2.2421871E-1,-1.2282023E-1,4.4175687E-1,-9.663211E-2,2.4841656E-1,-1.7287757E-1,-1.591296E-1,2.4260696E-2,-3.2799486E-2,-3.046352E-1,5.8702487E-1,-2.6445404E-1,-1.6504447E-1,-2.3959257E-1,2.5050947E-1,-2.4866265E-1,-2.0405614E-1,-2.4001583E-1,-2.1468349E-1,-9.230743E-2,1.3773306E-1,-2.2038567E-1,1.6020061E-2,-1.0199357E-1,-2.2267391E-1,1.5645841E-1,-8.676301E-2,-2.361942E-1,5.436597E-1,-1.5715387E-2,-2.380638E-1,-1.0549046E-2,-2.610702E-1,-3.1020958E-2,-3.0904222E-1,5.571152E-2,3.113863E-1,-2.541872E-1,-2.9530913E-1,3.3366403E-1,-2.0202826E-1,-7.4121095E-3,1.4090723E-1,-2.9954985E-1,-1.7574787E-1,1.1171077E-1,-1.8506216E-1,-8.12395E-2,-2.515154E-1,3.3923203E-1,5.543816E-1,4.3135233E-2,-1.9208424E-1,-2.2305821E-1,-2.2371823E-1,-3.0653983E-1,-1.8514368E-1,-2.4896227E-1,-1.258237E-1,3.4874877E-1],"categories":[],"categories_nodes":[],"categories_segments":[],"categories_sizes":[],"default_left":[1,1,1,1,1,1,1,1,1,1,1,1,1,1,0,1,0,1,1,1,1,1,1,1,1,1,1,1,1,1,1,0,1,1,1,1,1,0,1,1,1,1,1,1,0,0,0,1,1,1,0,1,1,1,1,0,0,0,0,0,0,0,0,0,0,0,0,0,0,0,0,0,0,0,0,0,0,0,0,0,0,0,0,0,0,0,0,0,0,0,0,0,0,0,0],"id":2,"left_children":[1,3,5,7,9,11,13,15,17,19,21,23,25,27,-1,29,-1,31,33,35,37,39,41,43,45,47,49,51,53,55,57,-1,59,61,63,65,67,-1,69,71,73,75,77,79,-1,-1,-1,81,83,85,-1,87,89,91,93,-1,-1,-1,-1,-1,-1,-1,-1,-1,-1,-1,-1,-1,-1,-1,-1,-1,-1,-1,-1,-1,-1,-1,-1,-1,-1,-1,-1,-1,-1,-1,-1,-1,-1,-1,-1,-1,-1,-1,-1],"loss_changes":[4.601158E0,1.8351431E0,1.167572E0,9.110207E-1,8.8174343E-1,1.2730598E0,6.8637085E-1,6.248175E-1,1.0033951E0,9.7237873E-1,1.4165046E0,1.9025073E0,1.3786774E0,4.3706512E-1,0E0,4.2388248E-1,0E0,7.227478E-1,9.2186E-1,4.687147E-1,1.065773E0,1.4416357E0,7.96149E-1,8.3832043E-1,3.0321255E0,3.2422543E-1,1.2938521E0,2.0122528E-1,1.4310446E0,6.5423715E-1,5.391639E-1,0E0,1.6493946E0,4.274726E-2,1.0187578E0,5.299778E-1,8.549061E-1,0E0,4.7024775E-1,7.754246E-1,9.047508E-1,9.422314E-1,1.1375786E0,8.6659074E-1,0E0,0E0,0E0,5.872164E-1,6.236172E-1,9.213154E-1,0E0,2.9451752E-1,1.6668892E-1,2.2933102E-1,2.2908301E0,0E0,0E0,0E0,0E0,0E0,0E0,0E0,0E0,0E0,0E0,0E0,0E0,0E0,0E0,0E0,0E0,0E0,0E0,0E0,0E0,0E0,0E0,0E0,0E0,0E0,0E0,0E0,0E0,0E0,0E0,0E0,0E0,0E0,0E0,0E0,0E0,0E0,0E0,0E0,0E0],"parents":[2147483647,0,0,1,1,2,2,3,3,4,4,5,5,6,6,7,7,8,8,9,9,10,10,11,11,12,12,13,13,15,15,17,17,18,18,19,19,20,20,21,21,22,22,23,23,24,24,25,25,26,26,27,27,28,28,29,29,30,30,32,32,33,33,34,34,35,35,36,36,38,38,39,39,40,40,41,41,42,42,43,43,47,47,48,48,49,49,51,51,52,52,53,53,54,54],"right_children":[2,4,6,8,10,12,14,16,18,20,22,24,26,28,-1,30,-1,32,34,36,38,40,42,44,46,48,50,52,54,56,58,-1,60,62,64,66,68,-1,70,72,74,76,78,80,-1,-1,-1,82,84,86,-1,88,90,92,94,-1,-1,-1,-1,-1,-1,-1,-1,-1,-1,-1,-1,-1,-1,-1,-1,-1,-1,-1,-1,-1,-1,-1,-1,-1,-1,-1,-1,-1,-1,-1,-1,-1,-1,-1,-1,-1,-1,-1,-1],"split_conditions":[-7.362633E-1,-4.7686338E-1,-1.1117651E0,-8.9893574E-1,7.253132E-1,-5.7359076E-1,5.1199465E0,5E-1,5E-1,5E-1,-1.1117651E0,5E-1,5E-1,5E-1,6.757032E-2,-1.1117651E0,-1.0740556E-1,-8.775889E-1,-2.041156E-1,5E-1,5E-1,1.9274899E0,5E-1,5E-1,5E-1,1.0531341E0,-4.237056E-3,5E-1,5E-1,5E-1,5E-1,-9.194392E-2,5E-1,5E-1,5E-1,5E-1,-2.041156E-1,1.3252707E-1,-7.613785E-2,5E-1,5E-1,2.3282156E0,1.9274899E0,3.2458767E-1,-9.1390565E-2,1.7610747E-1,-7.933621E-2,4.0244418E-1,2.3282156E0,3.2458767E-1,-7.45988E-2,7.0353395E-1,7.253132E-1,7.709919E-2,1.9274899E0,4.1319918E-2,-6.611571E-2,4.8060184E-3,-3.0598072E-2,-6.6802174E-2,4.6937525E-2,-2.6028903E-2,-7.085826E-2,1.6309792E-1,-4.714616E-3,-7.141914E-2,-3.164714E-3,-7.832106E-2,-9.306287E-3,-9.271267E-2,1.6713457E-2,9.3415886E-2,-7.625616E-2,-8.859274E-2,1.0009921E-1,-6.060848E-2,-2.223633E-3,4.227217E-2,-8.9864954E-2,-5.2724365E-2,3.3513233E-2,-5.551865E-2,-2.4371851E-2,-7.545462E-2,1.0176961E-1,1.6631448E-1,1.2940571E-2,-5.7625275E-2,-6.6917464E-2,-6.711547E-2,-9.196195E-2,-5.5543106E-2,-7.468868E-2,-3.7747115E-2,1.0462464E-1],"split_indices":[1,2,0,1,2,1,1,4,9,8,0,9,8,9,0,0,0,2,0,10,12,2,5,10,12,1,1,7,12,11,12,0,10,12,12,7,0,0,2,6,7,2,2,2,0,0,0,1,2,2,0,0,2,1,2,0,0,0,0,0,0,0,0,0,0,0,0,0,0,0,0,0,0,0,0,0,0,0,0,0,0,0,0,0,0,0,0,0,0,0,0,0,0,0,0],"split_type":[0,0,0,0,0,0,0,0,0,0,0,0,0,0,0,0,0,0,0,0,0,0,0,0,0,0,0,0,0,0,0,0,0,0,0,0,0,0,0,0,0,0,0,0,0,0,0,0,0,0,0,0,0,0,0,0,0,0,0,0,0,0,0,0,0,0,0,0,0,0,0,0,0,0,0,0,0,0,0,0,0,0,0,0,0,0,0,0,0,0,0,0,0,0,0],"sum_hessian":[3.44E3,7.9E2,2.65E3,3.22E2,4.68E2,5.27E2,2.123E3,2.21E2,1.01E2,2.63E2,2.05E2,7.1E1,4.56E2,2.12E3,3E0,2.17E2,4E0,7.8E1,2.3E1,2.46E2,1.7E1,3.3E1,1.72E2,5.5E1,1.6E1,4.35E2,2.1E1,1.698E3,4.22E2,4.1E1,1.76E2,2.7E1,5.1E1,1.1E1,1.2E1,1.79E2,6.7E1,4E0,1.3E1,2.1E1,1.2E1,1.44E2,2.8E1,4E1,1.5E1,1E1,6E0,3.58E2,7.7E1,1.4E1,7E0,1.482E3,2.16E2,2.71E2,1.51E2,3.6E1,5E0,1.2E2,5.6E1,3.5E1,1.6E1,8E0,3E0,5E0,7E0,1.68E2,1.1E1,2.6E1,4.1E1,5E0,8E0,1.9E1,2E0,1E1,2E0,1.12E2,3.2E1,2.1E1,7E0,2E1,2E1,2.88E2,7E1,7.6E1,1E0,5E0,9E0,9.16E2,5.66E2,1.77E2,3.9E1,1.49E2,1.22E2,1.41E2,1E1],"tree_param":{"num_deleted":"0","num_feature":"14","num_nodes":"95","size_leaf_vector":"0"}},{"base_weights":[-1.1927948E-1,-7.255915E-2,-1.331748E-1,-3.189308E-2,-1.0041113E-1,-1.0305176E-1,-1.4060032E-1,-6.6758357E-3,-8.646499E-2,-1.2322588E-1,-5.5154543E-2,-6.820568E-2,-1.5229067E-1,-1.4264564E-1,-1.8009093E-2,-2.386816E-2,1.1837496E-1,-1.2491568E-1,4.3704577E-2,-9.414255E-2,-1.8641858E-1,7.756143E-2,-7.932302E-2,-1.2616995E-1,3.0321952E-2,-1.7298573E-1,1.0257355E-1,-1.390984E-1,-2.0287997E-1,-1.6545731E-1,2.255136E-1,2.811891E-2,-6.39314E-2,1.5382943E-1,-2.1653734E-1,-1.4771561E-1,1.7710274E-1,-1.0873648E-1,1.8105751E-1,-1.0939208E-1,1.3261084E-1,-6.6204175E-2,-2.093473E-1,2.6928577E-1,-1.20129175E-1,-1.19607866E-1,6.566086E-2,1.9164648E-2,-1.7878498E-1,2.1795724E-1,-2.6305545E-2,-1.9970427E-1,-8.548281E-2,3.105266E-1,-2.3886317E-1,-1.3148622E-1,-1.6690232E-1,-2.4608794E-1,-1.1994654E-1,-2.4098484E-1,2.5354475E-1,5.594223E-1,8.359104E-2,6.1651286E-2,-2.0611557E-1,-3.1251207E-2,-2.8812623E-1,8.2070634E-2,1.8906434E-1,-2.1653593E-1,-5.0622217E-2,-2.7139091E-1,4.691973E-1,-2.1438633E-1,-6.6167876E-2,4.0774474E-1,-1.1590105E-2,-1.2042686E-1,7.536095E-2,-2.6253355E-1,2.6424417E-1,-2.0241456E-1,3.0118364E-1,-1.7358874E-1,-2.783139E-1,1.504054E-1,3.4969673E-1,-2.1477027E-1,2.669312E-1,-1.4641947E-1,3.0029789E-3,-2.5466964E-1,1.9372056E-1,1.4813048E-1,-8.4646836E-2,-2.4477524E-1,-7.3768705E-2,3.2917085E-1,-8.73214E-2,-5.252238E-2,5.5048704E-1,-2.0632446E-1,-2.0190577E-3,-3.961766E-2,-2.4032445E-1,1.4662181E-1,5.607045E-1,-1.4638193E-1,-1.0763757E-1,-1.7638749E-1,-3.260667E-2,-9.0474676E-4,-2.1307033E-1,-6.3587934E-2,4.9726427E-1],"categories":[],"categories_nodes":[],"categories_segments":[],"categories_sizes":[],"default_left":[1,1,1,1,1,1,1,1,1,1,1,1,1,1,1,1,1,1,1,1,1,1,1,1,1,1,1,1,1,1,1,1,1,1,0,1,1,1,1,1,1,1,1,1,1,1,1,1,1,1,1,1,1,1,0,1,1,0,1,0,0,0,1,0,0,0,0,0,0,0,0,0,0,0,0,0,0,0,0,0,0,0,0,0,0,0,0,0,0,0,0,0,0,0,0,0,0,0,0,0,0,0,0,0,0,0,0,0,0,0,0,0,0,0,0],"id":3,"left_children":[1,3,5,7,9,11,13,15,17,19,21,23,25,27,29,31,33,35,37,39,41,43,45,47,49,51,53,55,57,59,61,63,65,67,-1,69,71,73,75,77,79,81,83,85,87,89,91,93,95,97,99,101,103,105,-1,107,109,-1,111,-1,-1,-1,113,-1,-1,-1,-1,-1,-1,-1,-1,-1,-1,-1,-1,-1,-1,-1,-1,-1,-1,-1,-1,-1,-1,-1,-1,-1,-1,-1,-1,-1,-1,-1,-1,-1,-1,-1,-1,-1,-1,-1,-1,-1,-1,-1,-1,-1,-1,-1,-1,-1,-1,-1,-1],"loss_changes":[2.2242165E0,8.927083E-1,5.7847977E-1,4.4392028E-1,4.7745466E-1,8.955469E-1,5.300026E-1,4.8010623E-1,5.1598066E-1,5.540228E-1,5.161518E-1,1.7799724E0,1.1675692E0,4.1812897E-1,1.3299644E0,4.100207E-1,3.5391158E-1,5.7015467E-1,5.22205E-1,7.579514E-1,2.5350738E-1,9.799016E-1,7.9634166E-1,1.5021961E0,1.2382703E0,4.5519495E-1,1.281221E0,3.9627075E-1,3.7898874E-1,7.8896296E-1,6.166859E-1,6.8818897E-1,8.042628E-1,4.769373E-2,0E0,4.8350632E-1,9.1335124E-1,3.978291E-2,5.724457E-1,4.2089486E-1,7.975714E-1,9.116786E-1,1.5144587E-1,7.1674466E-2,5.335425E-1,3.489033E-1,1.2799777E0,7.221099E-1,9.798708E-1,9.454243E-1,1.3898636E0,2.0112467E-1,3.3846882E-1,3.6884737E-1,0E0,5.3700066E-1,5.305252E-1,0E0,4.543178E-1,0E0,0E0,0E0,7.01344E-1,0E0,0E0,0E0,0E0,0E0,0E0,0E0,0E0,0E0,0E0,0E0,0E0,0E0,0E0,0E0,0E0,0E0,0E0,0E0,0E0,0E0,0E0,0E0,0E0,0E0,0E0,0E0,0E0,0E0,0E0,0E0,0E0,0E0,0E0,0E0,0E0,0E0,0E0,0E0,0E0,0E0,0E0,0E0,0E0,0E0,0E0,0E0,0E0,0E0,0E0,0E0,0E0],"parents":[2147483647,0,0,1,1,2,2,3,3,4,4,5,5,6,6,7,7,8,8,9,9,10,10,11,11,12,12,13,13,14,14,15,15,16,16,17,17,18,18,19,19,20,20,21,21,22,22,23,23,24,24,25,25,26,26,27,27,28,28,29,29,30,30,31,31,32,32,33,33,35,35,36,36,37,37,38,38,39,39,40,40,41,41,42,42,43,43,44,44,45,45,46,46,47,47,48,48,49,49,50,50,51,51,52,52,53,53,55,55,56,56,58,58,62,62],"right_children":[2,4,6,8,10,12,14,16,18,20,22,24,26,28,30,32,34,36,38,40,42,44,46,48,50,52,54,56,58,60,62,64,66,68,-1,70,72,74,76,78,80,82,84,86,88,90,92,94,96,98,100,102,104,106,-1,108,110,-1,112,-1,-1,-1,114,-1,-1,-1,-1,-1,-1,-1,-1,-1,-1,-1,-1,-1,-1,-1,-1,-1,-1,-1,-1,-1,-1,-1,-1,-1,-1,-1,-1,-1,-1,-1,-1,-1,-1,-1,-1,-1,-1,-1,-1,-1,-1,-1,-1,-1,-1,-1,-1,-1,-1,-1,-1],"split_conditions":[-7.362633E-1,-4.7686338E-1,-1.1117651E0,-8.9893574E-1,1.1260388E0,5E-1,3.8185666E0,5E-1,5E-1,7.0353395E-1,-1.1117651E0,-7.613785E-2,5E-1,5E-1,7.0353395E-1,-2.041156E-1,7.0353395E-1,5E-1,-2.041156E-1,5E-1,-7.613785E-2,1.9274899E0,5E-1,-8.775889E-1,-5.7359076E-1,5E-1,-7.613785E-2,5.6511664E-1,7.0353395E-1,5.2495044E-1,-8.775889E-1,5E-1,5E-1,-2.041156E-1,-6.49612E-2,5E-1,5E-1,-1.1117651E0,5E-1,5E-1,-1.0616082E0,5E-1,-8.9893574E-1,-1.0616082E0,5E-1,5E-1,-2.041156E-1,-8.55733E-2,4.0244418E-1,1.5267644E0,5E-1,5E-1,4.0244418E-1,-4.109183E-1,-7.1658954E-2,5E-1,5E-1,-7.382639E-2,2.3977168E-1,-7.229546E-2,7.6063424E-2,1.678267E-1,5E-1,1.8495386E-2,-6.1834674E-2,-9.375363E-3,-8.643787E-2,2.462119E-2,5.6719303E-2,-6.496078E-2,-1.5186666E-2,-8.141728E-2,1.407592E-1,-6.43159E-2,-1.9850364E-2,1.2232342E-1,-3.4770316E-3,-3.612806E-2,2.2608284E-2,-7.8760065E-2,7.927325E-2,-6.072437E-2,9.03551E-2,-5.2076623E-2,-8.349417E-2,4.5121625E-2,1.04909025E-1,-6.4431086E-2,8.007936E-2,-4.392584E-2,9.008937E-4,-7.640089E-2,5.811617E-2,4.4439144E-2,-2.5394052E-2,-7.343257E-2,-2.2130612E-2,9.875126E-2,-2.6196422E-2,-1.5756715E-2,1.6514611E-1,-6.189734E-2,-6.0571736E-4,-1.1885299E-2,-7.209734E-2,4.3986544E-2,1.6821137E-1,-4.391458E-2,-3.229127E-2,-5.2916247E-2,-9.782001E-3,-2.7142404E-4,-6.39211E-2,-1.907638E-2,1.4917928E-1],"split_indices":[1,2,0,1,2,12,1,6,9,0,0,2,11,6,0,0,0,8,0,8,2,2,10,2,1,9,2,1,0,2,2,11,9,0,0,10,12,0,12,7,1,10,1,1,7,5,0,1,1,2,6,8,1,1,0,12,4,0,1,0,0,0,4,0,0,0,0,0,0,0,0,0,0,0,0,0,0,0,0,0,0,0,0,0,0,0,0,0,0,0,0,0,0,0,0,0,0,0,0,0,0,0,0,0,0,0,0,0,0,0,0,0,0,0,0],"split_type":[0,0,0,0,0,0,0,0,0,0,0,0,0,0,0,0,0,0,0,0,0,0,0,0,0,0,0,0,0,0,0,0,0,0,0,0,0,0,0,0,0,0,0,0,0,0,0,0,0,0,0,0,0,0,0,0,0,0,0,0,0,0,0,0,0,0,0,0,0,0,0,0,0,0,0,0,0,0,0,0,0,0,0,0,0,0,0,0,0,0,0,0,0,0,0,0,0,0,0,0,0,0,0,0,0,0,0,0,0,0,0,0,0,0,0],"sum_hessian":[3.44E3,7.9E2,2.65E3,3.22E2,4.68E2,5.27E2,2.123E3,2.21E2,1.01E2,3.1E2,1.58E2,3.1E2,2.17E2,2.088E3,3.5E1,1.95E2,2.6E1,7.8E1,2.3E1,2.14E2,9.6E1,2.4E1,1.34E2,1.95E2,1.15E2,2.01E2,1.6E1,1.975E3,1.13E2,2.2E1,1.3E1,8.5E1,1.1E2,2.4E1,2E0,7.3E1,5E0,1.1E1,1.2E1,2.01E2,1.3E1,1.6E1,8E1,1.2E1,1.2E1,1.05E2,2.9E1,5.2E1,1.43E2,2.6E1,8.9E1,1.53E2,4.8E1,1E1,6E0,1.555E3,4.2E2,7.3E1,4E1,1.9E1,3E0,3E0,1E1,7.5E1,1E1,9.7E1,1.3E1,9E0,1.5E1,4.2E1,3.1E1,2E0,3E0,2E0,9E0,5E0,7E0,1.9E2,1.1E1,3E0,1E1,1.2E1,4E0,5.5E1,2.5E1,6E0,6E0,1E1,2E0,8.6E1,1.9E1,8E0,2.1E1,2.3E1,2.9E1,8.7E1,5.6E1,1.9E1,7E0,8.6E1,3E0,1.48E2,5E0,3.8E1,1E1,7E0,3E0,9.54E2,6.01E2,3.92E2,2.8E1,1.8E1,2.2E1,8E0,2E0],"tree_param":{"num_deleted":"0","num_feature":"14","num_nodes":"115","size_leaf_vector":"0"}},{"base_weights":[-8.3483785E-2,-5.0947502E-2,-9.3160406E-2,-3.0866325E-2,-7.9347506E-2,-9.355124E-2,1.8886395E-1,-2.046775E-2,-1.2291178E-1,-9.7449355E-2,-8.967663E-3,-7.187207E-2,-9.890393E-2,2.3507906E-2,-5.466713E-2,-8.642152E-3,-1.873765E-1,-2.0083432E-1,-8.460718E-2,2.7675884E-2,-2.5226158E-1,-5.4159205E-2,-1.2568408E-1,-1.0410491E-1,-7.778014E-2,5.3656515E-2,-1.0192683E-1,-3.466582E-2,-2.2209156E-1,-4.1535914E-1,1.0039186E-1,-2.7669778E-1,-1.3591985E-1,-2.432523E-1,2.3373301E-1,-9.627464E-2,1.3829142E-1,8.0563225E-2,-1.9058707E-1,-3.8704805E-2,-1.5885384E-1,-1.8459114E-1,-5.166725E-2,-1.0644738E-1,-5.83733E-2,-5.5483133E-2,-1.4831632E-1,7.2183944E-2,-2.4256836E-1,4.5830935E-1,-1.6674556E-1,-4.6025295E-2,9.834142E-2,4.737176E-1,-1.3364278E-1,-3.135524E-1,-1.4302777E-1,-3.0148703E-1,-9.1576055E-2,-1.2404563E-1,-2.72886E-2,-5.8387946E-3,4.2801154E-1,3.1681818E-1,1.9485401E-2,-9.8477736E-2,-2.103482E-1,-4.7290947E-2,7.953632E-2,-5.6278132E-2,-1.794944E-1,1.0307359E-1,-1.16754584E-1,-1.0368882E-1,-1.6585134E-1,-7.415861E-2,3.978114E-1,-1.0155724E-1,4.3913573E-2,-1.608769E-1,1.964972E-1],"categories":[],"categories_nodes":[],"categories_segments":[],"categories_sizes":[],"default_left":[1,1,1,1,1,1,0,1,1,1,1,1,1,1,1,1,1,1,1,1,0,1,1,1,1,1,1,1,0,0,1,1,1,0,0,1,1,1,1,1,1,0,1,1,1,1,1,0,0,0,0,0,0,0,0,0,0,0,0,0,0,0,0,0,0,0,0,0,0,0,0,0,0,0,0,0,0,0,0,0,0],"id":4,"left_children":[1,3,5,7,9,11,-1,13,15,17,19,21,23,25,27,29,31,33,35,37,-1,39,41,43,45,47,49,51,-1,-1,53,55,57,-1,-1,59,61,63,65,67,69,-1,71,73,75,77,79,-1,-1,-1,-1,-1,-1,-1,-1,-1,-1,-1,-1,-1,-1,-1,-1,-1,-1,-1,-1,-1,-1,-1,-1,-1,-1,-1,-1,-1,-1,-1,-1,-1,-1],"loss_changes":[1.0786228E0,4.4866252E-1,3.098774E-1,4.425551E-1,4.1572595E-1,3.001709E-1,0E0,6.31436E-1,3.4459955E-1,3.2820702E-1,6.1321187E-1,4.96464E-1,2.2492409E-1,7.012987E-1,7.825961E-1,8.399264E-1,1.0027647E-1,5.729933E-1,6.192676E-1,7.0795506E-1,0E0,6.3943076E-1,5.5727744E-1,1.7579079E-1,6.5704226E-1,8.35264E-1,1.3837178E0,3.2483545E-1,0E0,0E0,1.3738762E0,4.416883E-3,1.2657043E-1,0E0,0E0,4.2192507E-1,5.035882E-1,7.0089364E-1,1.1276305E-3,3.5807836E-1,9.787655E-2,0E0,6.062628E-1,2.4745178E-1,6.415876E-1,1.4836752E0,4.6904898E-1,0E0,0E0,0E0,0E0,0E0,0E0,0E0,0E0,0E0,0E0,0E0,0E0,0E0,0E0,0E0,0E0,0E0,0E0,0E0,0E0,0E0,0E0,0E0,0E0,0E0,0E0,0E0,0E0,0E0,0E0,0E0,0E0,0E0,0E0],"parents":[2147483647,0,0,1,1,2,2,3,3,4,4,5,5,7,7,8,8,9,9,10,10,11,11,12,12,13,13,14,14,15,15,16,16,17,17,18,18,19,19,21,21,22,22,23,23,24,24,25,25,26,26,27,27,30,30,31,31,32,32,35,35,36,36,37,37,38,38,39,39,40,40,42,42,43,43,44,44,45,45,46,46],"right_children":[2,4,6,8,10,12,-1,14,16,18,20,22,24,26,28,30,32,34,36,38,-1,40,42,44,46,48,50,52,-1,-1,54,56,58,-1,-1,60,62,64,66,68,70,-1,72,74,76,78,80,-1,-1,-1,-1,-1,-1,-1,-1,-1,-1,-1,-1,-1,-1,-1,-1,-1,-1,-1,-1,-1,-1,-1,-1,-1,-1,-1,-1,-1,-1,-1,-1,-1,-1],"split_conditions":[-7.362633E-1,5E-1,5.1199465E0,5E-1,1.1260388E0,-1.1117651E0,5.6659188E-2,-4.7686338E-1,-2.041156E-1,-1.0616082E0,5E-1,5E-1,5E-1,5E-1,5E-1,-8.775889E-1,7.0353395E-1,5E-1,5E-1,5E-1,-7.5678475E-2,1.0531341E0,4.0244418E-1,2.3545141E0,5.6511664E-1,5E-1,-1.0616082E0,2.3282156E0,-6.662747E-2,-1.2460775E-1,7.253132E-1,-8.9893574E-1,-1.0616082E0,-7.2975695E-2,7.011991E-2,5E-1,-7.613785E-2,1.5267644E0,-1.1117651E0,5E-1,-8.775889E-1,-5.5377346E-2,7.2778916E-1,2.029169E0,5E-1,5E-1,3.8185666E0,2.1655183E-2,-7.277051E-2,1.374928E-1,-5.002367E-2,-1.3807589E-2,2.9502427E-2,1.4211528E-1,-4.0092833E-2,-9.4065726E-2,-4.2908333E-2,-9.0446115E-2,-2.7472818E-2,-3.721369E-2,-8.186581E-3,-1.7516385E-3,1.2840347E-1,9.5045455E-2,5.8456203E-3,-2.9543322E-2,-6.3104466E-2,-1.4187285E-2,2.3860896E-2,-1.688344E-2,-5.3848322E-2,3.0922078E-2,-3.5026375E-2,-3.1106647E-2,-4.9755406E-2,-2.2247583E-2,1.1934343E-1,-3.0467173E-2,1.3174073E-2,-4.8263073E-2,5.894916E-2],"split_indices":[1,12,1,7,2,0,0,2,0,1,5,10,9,5,3,2,0,7,8,6,0,1,1,1,1,8,1,2,0,0,2,1,1,0,0,5,2,2,0,8,2,0,1,1,4,12,1,0,0,0,0,0,0,0,0,0,0,0,0,0,0,0,0,0,0,0,0,0,0,0,0,0,0,0,0,0,0,0,0,0,0],"split_type":[0,0,0,0,0,0,0,0,0,0,0,0,0,0,0,0,0,0,0,0,0,0,0,0,0,0,0,0,0,0,0,0,0,0,0,0,0,0,0,0,0,0,0,0,0,0,0,0,0,0,0,0,0,0,0,0,0,0,0,0,0,0,0,0,0,0,0,0,0,0,0,0,0,0,0,0,0,0,0,0,0],"sum_hessian":[3.44E3,7.9E2,2.65E3,4.64E2,3.26E2,2.647E3,3E0,4.18E2,4.6E1,2.59E2,6.7E1,5.27E2,2.12E3,1.83E2,2.35E2,1.7E1,2.9E1,2.7E1,2.32E2,5.9E1,8E0,3.98E2,1.29E2,1.698E3,4.22E2,1.48E2,3.5E1,2.11E2,2.4E1,3E0,1.4E1,9E0,2E1,2.5E1,2E0,2.21E2,1.1E1,4.8E1,1.1E1,3.48E2,5E1,7.1E1,5.8E1,1.614E3,8.4E1,3.22E2,1E2,1.4E2,8E0,3E0,3.2E1,1.95E2,1.6E1,5E0,9E0,6E0,3E0,3E0,1.7E1,1.57E2,6.4E1,8E0,3E0,9E0,3.9E1,3E0,8E0,3.25E2,2.3E1,9E0,4.1E1,1.7E1,4.1E1,1.545E3,6.9E1,8.2E1,2E0,2.2E2,1.02E2,9.7E1,3E0],"tree_param":{"num_deleted":"0","num_feature":"14","num_nodes":"81","size_leaf_vector":"0"}},{"base_weights":[-5.8536105E-2,-2.6797278E-2,-6.379711E-2,5.8523444E-3,-5.3543273E-2,-6.967754E-2,-4.0687837E-2,1.2553582E-2,-2.8749207E-1,-4.7639962E-2,-1.764945E-1,-6.704478E-2,-1.520805E-1,-4.8833743E-2,9.659342E-2,2.5489917E-2,-6.630398E-2,-2.0403761E-2,-7.667394E-2,-1.9407439E-1,-5.906332E-2,-5.526533E-2,-8.5379794E-2,-1.7006491E-1,3.1824914E-1,1.6129866E-2,-6.627072E-2,1.6346331E-1,-1.0731887E-1,2.122288E-1,1.1551874E-2,-1.4441915E-1,8.88526E-2,-4.4705927E-2,1.0645308E-1,-1.3842887E-1,-3.0787842E-2,-6.587059E-2,-2.329075E-2,-7.007411E-2,-1.06900156E-1,-5.1529156E-3,3.1739327E-1,-7.053835E-2,9.466484E-2,-2.125439E-2,2.3263584E-1,3.7949648E-1,-2.5899762E-1,3.0399386E-2,-1.217625E-1,1.869864E-1,-1.8914533E-1,-2.3365244E-1,2.3899853E-1,1.6285238E-1,-8.0254756E-2,-1.338584E-1,2.0493604E-1,-1.5477422E-1,1.8558519E-1,-2.3945121E-1,-1.4223323E-3,-8.044245E-2,-2.9293729E-2,-8.922757E-2,5.5676624E-3,-8.164839E-2,4.6164013E-2,-1.16578415E-1,-5.1185205E-3,-5.26294E-2,1.7507678E-1,-1.7411579E-1,6.4712185E-1,-2.038366E-2,-8.0212116E-2,3.7194127E-1,-1.565242E-1,1.925482E-1,-1.24613285E-1,5.9821792E-2,3.8218632E-1],"categories":[],"categories_nodes":[],"categories_segments":[],"categories_sizes":[],"default_left":[1,1,1,1,1,1,1,1,0,1,1,1,1,1,1,1,1,1,1,0,0,1,1,0,0,1,1,1,0,1,1,1,1,1,1,1,1,1,1,1,1,1,1,1,1,1,1,0,0,0,0,0,0,0,0,0,0,0,0,0,0,0,0,0,0,0,0,0,0,0,0,0,0,0,0,0,0,0,0,0,0,0,0],"id":5,"left_children":[1,3,5,7,9,11,13,15,-1,17,19,21,23,25,27,29,31,33,35,-1,-1,37,39,-1,-1,41,43,45,-1,47,49,51,53,55,57,59,61,63,65,67,69,71,73,75,77,79,81,-1,-1,-1,-1,-1,-1,-1,-1,-1,-1,-1,-1,-1,-1,-1,-1,-1,-1,-1,-1,-1,-1,-1,-1,-1,-1,-1,-1,-1,-1,-1,-1,-1,-1,-1,-1],"loss_changes":[5.728626E-1,4.2907745E-1,3.9818382E-1,4.400101E-1,1.8756306E-1,4.9984646E-1,6.768034E-1,2.2407795E-1,0E0,2.032463E-1,1.3310432E-2,4.877081E-1,6.631422E-1,6.444814E-1,4.811528E-1,4.8686996E-1,3.885545E-1,4.2095003E-1,3.4994966E-1,0E0,0E0,4.701519E-1,2.8566074E-1,0E0,0E0,7.7745396E-1,3.143704E-1,3.371567E-1,0E0,1.1229612E0,4.4592687E-1,3.4664017E-1,5.884936E-1,8.542135E-1,5.480973E-1,3.0941844E-1,4.4696736E-1,5.5408764E-1,6.6268235E-1,7.073989E-1,3.6190844E-1,9.8467493E-1,1.4091907E0,2.103908E-1,8.9400345E-1,2.0078124E-1,4.68181E-1,0E0,0E0,0E0,0E0,0E0,0E0,0E0,0E0,0E0,0E0,0E0,0E0,0E0,0E0,0E0,0E0,0E0,0E0,0E0,0E0,0E0,0E0,0E0,0E0,0E0,0E0,0E0,0E0,0E0,0E0,0E0,0E0,0E0,0E0,0E0,0E0],"parents":[2147483647,0,0,1,1,2,2,3,3,4,4,5,5,6,6,7,7,9,9,10,10,11,11,12,12,13,13,14,14,15,15,16,16,17,17,18,18,21,21,22,22,25,25,26,26,27,27,29,29,30,30,31,31,32,32,33,33,34,34,35,35,36,36,37,37,38,38,39,39,40,40,41,41,42,42,43,43,44,44,45,45,46,46],"right_children":[2,4,6,8,10,12,14,16,-1,18,20,22,24,26,28,30,32,34,36,-1,-1,38,40,-1,-1,42,44,46,-1,48,50,52,54,56,58,60,62,64,66,68,70,72,74,76,78,80,82,-1,-1,-1,-1,-1,-1,-1,-1,-1,-1,-1,-1,-1,-1,-1,-1,-1,-1,-1,-1,-1,-1,-1,-1,-1,-1,-1,-1,-1,-1,-1,-1,-1,-1,-1,-1],"split_conditions":[-8.9893574E-1,-4.7686338E-1,7.253132E-1,5E-1,5E-1,5E-1,5E-1,5E-1,-8.624762E-2,5E-1,7.0353395E-1,-4.7686338E-1,3.1678767E0,1.1260388E0,2.3977168E-1,-8.775889E-1,7.0353395E-1,5E-1,-2.041156E-1,-5.822232E-2,-1.7718997E-2,5E-1,5E-1,-5.1019475E-2,9.547474E-2,5E-1,2.5171866E0,-5.7359076E-1,-3.219566E-2,5E-1,5E-1,-1.0616082E0,-1.0616082E0,-1.1117651E0,-1.0616082E0,5E-1,-7.613785E-2,5E-1,-8.775889E-1,5E-1,5E-1,5E-1,-6.54927E-1,-7.362633E-1,1.9274899E0,-6.5794045E-1,-2.041156E-1,1.1384895E-1,-7.769929E-2,9.119816E-3,-3.652875E-2,5.6095924E-2,-5.67436E-2,-7.009573E-2,7.169956E-2,4.8855714E-2,-2.4076428E-2,-4.015752E-2,6.1480816E-2,-4.6432268E-2,5.567556E-2,-7.183537E-2,-4.266997E-4,-2.4132736E-2,-8.788119E-3,-2.6768273E-2,1.6702987E-3,-2.4494518E-2,1.3849204E-2,-3.4973525E-2,-1.5355562E-3,-1.5788822E-2,5.2523036E-2,-5.223474E-2,1.9413656E-1,-6.115098E-3,-2.4063636E-2,1.1158238E-1,-4.695726E-2,5.7764463E-2,-3.738399E-2,1.7946538E-2,1.14655904E-1],"split_indices":[1,2,2,4,3,4,8,7,0,12,0,2,1,2,1,2,0,5,0,0,0,10,12,0,0,11,1,1,0,12,11,1,1,0,1,8,2,9,2,7,3,9,1,1,2,0,0,0,0,0,0,0,0,0,0,0,0,0,0,0,0,0,0,0,0,0,0,0,0,0,0,0,0,0,0,0,0,0,0,0,0,0,0],"split_type":[0,0,0,0,0,0,0,0,0,0,0,0,0,0,0,0,0,0,0,0,0,0,0,0,0,0,0,0,0,0,0,0,0,0,0,0,0,0,0,0,0,0,0,0,0,0,0,0,0,0,0,0,0,0,0,0,0,0,0,0,0,0,0,0,0,0,0,0,0,0,0,0,0,0,0,0,0,0,0,0,0,0,0],"sum_hessian":[3.44E3,4.9E2,2.95E3,2.21E2,2.69E2,2.35E3,6E2,2.17E2,4E0,2.58E2,1.1E1,2.279E3,7.1E1,5.67E2,3.3E1,1.87E2,3E1,1.34E2,1.24E2,9E0,2E0,1.39E3,8.89E2,6.9E1,2E0,1.2E2,4.47E2,2.5E1,8E0,1.2E1,1.75E2,2E1,1E1,1.13E2,2.1E1,5.2E1,7.2E1,1.043E3,3.47E2,5.22E2,3.67E2,1.13E2,7E0,4.36E2,1.1E1,7E0,1.8E1,9E0,3E0,1.54E2,2.1E1,2E0,1.8E1,3E0,7E0,1.6E1,9.7E1,6E0,1.5E1,5E1,2E0,8E0,6.4E1,7.45E2,2.98E2,1.05E2,2.42E2,4.75E2,4.7E1,3.35E2,3.2E1,9E1,2.3E1,3E0,4E0,7.1E1,3.65E2,5E0,6E0,2E0,5E0,9E0,9E0],"tree_param":{"num_deleted":"0","num_feature":"14","num_nodes":"83","size_leaf_vector":"0"}},{"base_weights":[-4.0945124E-2,-3.4030203E-2,-5.631934E-2,-2.455949E-2,-5.7326037E-2,-5.873754E-2,2.3421097E-1,-2.953009E-2,5.742673E-2,-6.294955E-2,1.8209319E-1,-1.0936945E-1,-5.0769087E-2,3.550275E-1,-1.2576461E-1,-1.0124904E-2,-4.3430764E-2,-2.3055311E-2,1.2467701E-1,-6.8640165E-2,1.9049588E-1,5.1379547E-2,5.613892E-1,2.2285187E-1,-1.15662314E-1,-2.3989039E-2,-7.1390465E-2,4.6833748E-1,1.5296066E-1,1.5433916E-1,-1.5185331E-2,-3.8353577E-2,-1.10328235E-1,1.4286157E-1,-1.4979693E-1,-7.540431E-2,1.8507652E-1,-8.96292E-2,-1.5802471E-2,4.627652E-1,8.3864786E-2,2.5503507E-1,-1.5961592E-1,-1.4182726E-1,-1.8243898E-2,-2.086863E-1,-1.77389E-2,-4.399591E-2,-1.0592129E-1,2.3139006E-1,-2.1171194E-1,-3.01623E-2,3.5174873E-2,-3.2467097E-2,-8.8064216E-2,-6.80149E-2,-1.3343811E-1,4.2289582E-1,-7.359945E-3,1.4846814E-1,-1.8083854E-1,-2.4496071E-1,1.0492414E-1,2.4712692E-1,-6.617901E-3,-4.4913117E-2,-1.0483211E-1,-3.4802195E-2,4.1604155E-1,2.4040553E-1,-1.1274355E-1,-1.08871736E-1,5.551831E-1,-1.4836298E-1,-1.0675212E-1,-1.0445979E-1,2.041127E-1,-2.8121585E-1,3.30834E-1,-3.5661682E-2,5.6308065E-2,-5.7049554E-2,7.1037315E-2,-1.14474155E-1,6.968643E-3],"categories":[],"categories_nodes":[],"categories_segments":[],"categories_sizes":[],"default_left":[1,1,1,1,1,1,1,1,1,1,1,1,1,1,0,1,1,1,1,1,1,1,0,0,1,1,1,0,0,1,1,1,1,1,1,1,1,1,1,0,1,1,0,1,1,1,1,1,1,0,0,0,0,0,0,0,0,0,0,0,0,0,0,0,0,0,0,0,0,0,0,0,0,0,0,0,0,0,0,0,0,0,0,0,0],"id":6,"left_children":[1,3,5,7,9,11,13,15,17,19,21,23,25,27,-1,29,31,33,35,37,39,41,-1,-1,43,45,47,-1,-1,49,51,53,55,57,59,61,63,65,67,-1,69,71,-1,73,75,77,79,81,83,-1,-1,-1,-1,-1,-1,-1,-1,-1,-1,-1,-1,-1,-1,-1,-1,-1,-1,-1,-1,-1,-1,-1,-1,-1,-1,-1,-1,-1,-1,-1,-1,-1,-1,-1,-1],"loss_changes":[3.6390114E-1,5.2280474E-1,7.626858E-1,6.9081295E-1,9.350786E-1,4.213059E-1,4.360689E-1,4.2980397E-1,5.2788115E-1,9.808316E-1,7.644227E-1,3.2473505E-1,5.041404E-1,8.863616E-2,0E0,5.5746007E-1,3.113042E-1,9.676861E-1,6.544507E-1,7.272048E-1,3.9667594E-1,5.9932274E-1,0E0,0E0,3.5681415E-1,4.5805156E-1,4.8439956E-1,0E0,0E0,6.130793E-1,4.8981053E-1,2.502576E-1,5.4484904E-2,8.4445584E-1,2.67573E-1,4.2318827E-1,4.8931873E-1,3.1480455E-1,1.5570035E0,0E0,3.9643073E-1,8.250252E-1,0E0,9.6075535E-3,6.156124E-1,6.017407E-1,5.169335E-1,4.3951744E-1,2.2093916E-1,0E0,0E0,0E0,0E0,0E0,0E0,0E0,0E0,0E0,0E0,0E0,0E0,0E0,0E0,0E0,0E0,0E0,0E0,0E0,0E0,0E0,0E0,0E0,0E0,0E0,0E0,0E0,0E0,0E0,0E0,0E0,0E0,0E0,0E0,0E0,0E0],"parents":[2147483647,0,0,1,1,2,2,3,3,4,4,5,5,6,6,7,7,8,8,9,9,10,10,11,11,12,12,13,13,15,15,16,16,17,17,18,18,19,19,20,20,21,21,24,24,25,25,26,26,29,29,30,30,31,31,32,32,33,33,34,34,35,35,36,36,37,37,38,38,40,40,41,41,43,43,44,44,45,45,46,46,47,47,48,48],"right_children":[2,4,6,8,10,12,14,16,18,20,22,24,26,28,-1,30,32,34,36,38,40,42,-1,-1,44,46,48,-1,-1,50,52,54,56,58,60,62,64,66,68,-1,70,72,-1,74,76,78,80,82,84,-1,-1,-1,-1,-1,-1,-1,-1,-1,-1,-1,-1,-1,-1,-1,-1,-1,-1,-1,-1,-1,-1,-1,-1,-1,-1,-1,-1,-1,-1,-1,-1,-1,-1,-1,-1],"split_conditions":[7.0353395E-1,2.3977168E-1,4.1439114E0,5E-1,5E-1,-8.775889E-1,5E-1,-4.7686338E-1,-2.041156E-1,2.3282156E0,1.8664966E0,-9.8027194E-1,-4.7686338E-1,4.7946014E0,-3.7729383E-2,-1.0616082E0,5E-1,-1.1117651E0,-8.9893574E-1,5E-1,7.2778916E-1,1.2158066E0,1.6841677E-1,6.6855565E-2,5E-1,-1.0616082E0,5E-1,1.4050125E-1,4.58882E-2,5E-1,5E-1,5E-1,-1.1117651E0,3.2458767E-1,-8.9893574E-1,-7.613785E-2,-8.55733E-2,-1.1117651E0,1.5267644E0,1.3882956E-1,-1.1117651E0,7.253132E-1,-4.7884777E-2,5.6511664E-1,5E-1,5E-1,5E-1,1.9274899E0,5E-1,6.941702E-2,-6.3513584E-2,-9.048691E-3,1.0552462E-2,-9.740129E-3,-2.6419265E-2,-2.040447E-2,-4.0031433E-2,1.2686875E-1,-2.2079838E-3,4.4540443E-2,-5.4251563E-2,-7.348821E-2,3.1477243E-2,7.413808E-2,-1.9853704E-3,-1.3473935E-2,-3.1449635E-2,-1.0440659E-2,1.2481247E-1,7.2121665E-2,-3.3823065E-2,-3.2661524E-2,1.6655494E-1,-4.4508897E-2,-3.202564E-2,-3.133794E-2,6.123381E-2,-8.436476E-2,9.9250205E-2,-1.0698505E-2,1.689242E-2,-1.7114867E-2,2.1311196E-2,-3.4342248E-2,2.090593E-3],"split_indices":[0,1,1,8,4,2,5,2,0,2,1,1,2,1,0,1,6,0,1,10,1,1,0,0,5,1,12,0,0,11,9,7,0,2,1,2,1,0,2,0,0,2,0,1,12,8,10,2,6,0,0,0,0,0,0,0,0,0,0,0,0,0,0,0,0,0,0,0,0,0,0,0,0,0,0,0,0,0,0,0,0,0,0,0,0],"split_type":[0,0,0,0,0,0,0,0,0,0,0,0,0,0,0,0,0,0,0,0,0,0,0,0,0,0,0,0,0,0,0,0,0,0,0,0,0,0,0,0,0,0,0,0,0,0,0,0,0,0,0,0,0,0,0,0,0,0,0,0,0,0,0,0,0,0,0,0,0,0,0,0,0,0,0,0,0,0,0,0,0,0,0,0,0],"sum_hessian":[3.44E3,2.375E3,1.065E3,1.69E3,6.85E2,1.057E3,8E0,1.594E3,9.6E1,6.7E2,1.5E1,1.42E2,9.15E2,6E0,2E0,6.66E2,9.28E2,4.4E1,5.2E1,6.56E2,1.4E1,1.2E1,3E0,2E0,1.4E2,3.99E2,5.16E2,3E0,3E0,1.9E1,6.47E2,8.64E2,6.4E1,1.9E1,2.5E1,1.2E1,4E1,4.69E2,1.87E2,3E0,1.1E1,6E0,6E0,1.1E2,3E1,1.2E1,3.87E2,2.89E2,2.27E2,1.6E1,3E0,4.99E2,1.48E2,7.74E2,9E1,2.4E1,4E1,6E0,1.3E1,2E0,2.3E1,6E0,6E0,3E1,1E1,1.2E2,3.49E2,1.8E2,7E0,6E0,5E0,3E0,3E0,9E1,2E1,2.2E1,8E0,1.1E1,1E0,3.12E2,7.5E1,2.6E2,2.9E1,2.11E2,1.6E1],"tree_param":{"num_deleted":"0","num_feature":"14","num_nodes":"85","size_leaf_vector":"0"}},{"base_weights":[-2.8452694E-2,-2.3586754E-2,-3.927166E-2,-2.1694455E-2,-1.0159456E-1,-4.110376E-2,1.8046547E-1,-1.8087985E-2,-5.675711E-2,-1.1419807E-1,2.9439575E-3,-7.641724E-2,-3.554598E-2,2.7514634E-1,-1.0061169E-1,-1.8794414E-2,9.709283E-2,1.547317E-2,-7.8606434E-2,-1.1752433E-1,-6.0756765E-2,-8.703381E-2,9.2185736E-2,1.782815E-1,-8.129439E-2,-1.673963E-2,-5.002759E-2,3.629616E-1,1.1854452E-1,-1.4786426E-2,-4.1725144E-2,-6.847862E-2,2.4879387E-1,-2.0551632E-1,7.4385636E-2,-1.7750159E-1,-6.1458945E-2,-9.996858E-2,-1.1806352E-2,-2.9622715E-2,3.5163E-2,-5.645056E-2,4.2876713E-2,-1.2078086E-2,-9.663249E-2,-5.18322E-2,1.6117628E-1,5.1814425E-1,-8.275497E-2,-2.3967233E-1,-8.5825205E-2,3.142988E-1,-2.911776E-3,-9.676186E-2,-2.383766E-1,1.3165484E-2,-8.76313E-2,-9.195684E-2,-1.2262401E-1,1.4807053E-1,-9.498918E-2,3.8482126E-2,-4.32348E-2,-3.4785517E-2,1.7375769E-1,-6.4551726E-2,9.254116E-3,-6.4219855E-2,2.7264407E-1],"categories":[],"categories_nodes":[],"categories_segments":[],"categories_sizes":[],"default_left":[1,1,1,1,1,1,1,1,1,1,1,1,1,1,0,1,1,1,1,0,0,0,0,0,1,1,1,0,0,1,1,0,1,1,1,1,1,1,1,1,1,1,1,0,0,0,0,0,0,0,0,0,0,0,0,0,0,0,0,0,0,0,0,0,0,0,0,0,0],"id":7,"left_children":[1,3,5,7,9,11,13,15,17,19,21,23,25,27,-1,29,31,33,35,-1,-1,-1,-1,-1,37,39,41,-1,-1,43,45,-1,47,49,51,53,55,57,59,61,63,65,67,-1,-1,-1,-1,-1,-1,-1,-1,-1,-1,-1,-1,-1,-1,-1,-1,-1,-1,-1,-1,-1,-1,-1,-1,-1,-1],"loss_changes":[1.8022323E-1,3.4852695E-1,4.3656874E-1,2.9246962E-1,7.411909E-2,2.0493174E-1,2.6719663E-1,1.731838E-1,3.4210366E-1,1.7476082E-3,6.42317E-2,1.9212866E-1,2.4863172E-1,5.323708E-2,0E0,1.9183439E-1,3.4356278E-1,6.792583E-1,2.7059436E-1,0E0,0E0,0E0,0E0,0E0,1.8178594E-1,2.6850802E-1,3.109256E-1,0E0,0E0,3.9428675E-1,6.461331E-1,0E0,6.6799873E-1,2.4399966E-2,7.6124656E-1,9.4895005E-2,2.804466E-1,8.871436E-3,4.2633444E-1,2.9924646E-1,7.816037E-1,2.5822294E-1,8.541572E-1,0E0,0E0,0E0,0E0,0E0,0E0,0E0,0E0,0E0,0E0,0E0,0E0,0E0,0E0,0E0,0E0,0E0,0E0,0E0,0E0,0E0,0E0,0E0,0E0,0E0,0E0],"parents":[2147483647,0,0,1,1,2,2,3,3,4,4,5,5,6,6,7,7,8,8,9,9,10,10,11,11,12,12,13,13,15,15,16,16,17,17,18,18,24,24,25,25,26,26,29,29,30,30,32,32,33,33,34,34,35,35,36,36,37,37,38,38,39,39,40,40,41,41,42,42],"right_children":[2,4,6,8,10,12,14,16,18,20,22,24,26,28,-1,30,32,34,36,-1,-1,-1,-1,-1,38,40,42,-1,-1,44,46,-1,48,50,52,54,56,58,60,62,64,66,68,-1,-1,-1,-1,-1,-1,-1,-1,-1,-1,-1,-1,-1,-1,-1,-1,-1,-1,-1,-1,-1,-1,-1,-1,-1,-1],"split_conditions":[7.0353395E-1,2.8425314E0,4.1439114E0,5E-1,1.3264015E0,-8.775889E-1,5E-1,2.5171866E0,-1.1117651E0,5E-1,-1.1117651E0,-9.8027194E-1,-4.7686338E-1,4.7946014E0,-3.0183507E-2,5.6511664E-1,-1.1117651E0,-8.775889E-1,-8.9893574E-1,-3.5257302E-2,-1.822703E-2,-2.6110144E-2,2.7655723E-2,5.348445E-2,5E-1,5E-1,5E-1,1.08888485E-1,3.5563357E-2,5E-1,5E-1,-2.0543586E-2,1.9274899E0,-8.55733E-2,-7.362633E-1,5E-1,-4.109183E-1,5E-1,2.3977168E-1,-8.9893574E-1,5E-1,5E-1,1.9274899E0,-3.623426E-3,-2.8989747E-2,-1.5549661E-2,4.8352886E-2,1.5544328E-1,-2.4826491E-2,-7.19017E-2,-2.5747562E-2,9.4289646E-2,-8.7353284E-4,-2.902856E-2,-7.151298E-2,3.9496454E-3,-2.628939E-2,-2.7587052E-2,-3.6787204E-2,4.442116E-2,-2.8496755E-2,1.1544638E-2,-1.297044E-2,-1.0435656E-2,5.212731E-2,-1.936552E-2,2.7762349E-3,-1.9265957E-2,8.179323E-2],"split_indices":[0,1,1,7,2,2,5,1,0,5,0,1,2,1,0,1,0,2,1,0,0,0,0,0,5,9,11,0,0,4,4,0,2,1,1,12,1,9,1,1,12,7,2,0,0,0,0,0,0,0,0,0,0,0,0,0,0,0,0,0,0,0,0,0,0,0,0,0,0],"split_type":[0,0,0,0,0,0,0,0,0,0,0,0,0,0,0,0,0,0,0,0,0,0,0,0,0,0,0,0,0,0,0,0,0,0,0,0,0,0,0,0,0,0,0,0,0,0,0,0,0,0,0,0,0,0,0,0,0,0,0,0,0,0,0,0,0,0,0,0,0],"sum_hessian":[3.44E3,2.375E3,1.065E3,2.32E3,5.5E1,1.057E3,8E0,2.105E3,2.15E2,4.9E1,6E0,1.42E2,9.15E2,6E0,2E0,2.093E3,1.2E1,5E1,1.65E2,4.5E1,4E0,3E0,3E0,2E0,1.4E2,3.99E2,5.16E2,3E0,3E0,1.783E3,3.1E2,6E0,6E0,1E1,4E1,2.3E1,1.42E2,1.1E2,3E1,3.2E2,7.9E1,4.83E2,3.3E1,1.727E3,5.6E1,2.96E2,1.4E1,3E0,3E0,7E0,3E0,9E0,3.1E1,1.1E1,1.2E1,3.7E1,1.05E2,8.5E1,2.5E1,1E1,2E1,5.3E1,2.67E2,5.3E1,2.6E1,4.3E2,5.3E1,2.3E1,1E1],"tree_param":{"num_deleted":"0","num_feature":"14","num_nodes":"69","size_leaf_vector":"0"}},{"base_weights":[-1.9877154E-2,-4.8789694E-3,-2.2365881E-2,-7.257259E-4,-5.735119E-2,-2.0761594E-2,-4.5700688E-2,1.060911E-2,-2.280569E-2,1.4262521E-1,-7.330937E-2,-1.5752751E-2,-3.1587433E-2,-6.710884E-2,9.062442E-3,1.714034E-2,-1.8181683E-1,-3.189938E-2,2.5638488E-1,-1.875284E-1,-3.675153E-2,-1.4235519E-2,-7.133257E-2,-5.0921395E-2,-1.0323147E-2,-8.146568E-2,3.153405E-2,-1.2466841E-2,2.8129518E-1,3.0500958E-2,-4.7237044E-3,-2.1440998E-1,-3.4296185E-2,-7.060459E-2,6.6157134E-4,5.4307395E-1,-1.1576585E-1,4.9169645E-2,-1.3306431E-1,-9.188421E-3,-2.4797775E-2,-8.142272E-2,2.2815668E-3,-6.663969E-2,7.338897E-3,-3.6294237E-3,-7.698873E-2,-5.981772E-2,-9.852985E-2,1.9811398E-1,-9.2481725E-2,5.662646E-2,-8.108065E-2,4.9996197E-2,-5.903804E-2,2.4675122E-2,-1.0291502E-1,-1.4342393E-1,-3.7955396E-2,3.0132052E-2,-3.6791787E-2,-3.621736E-2,1.1011846E-1,-4.5926668E-2,-2.2707045E-1,-2.4480041E-2,1.751649E-2,-3.955002E-2,1.2012181E-2,-6.517333E-2,-9.470967E-2,-6.74512E-2,7.1443945E-2,-3.532534E-2,-9.673431E-2,-1.5929455E-2,1.6070347E-1,-6.2100184E-3,1.1714448E-1,-1.0521755E-1,6.305573E-2,1.341874E-2,-7.639068E-2,-1.0544375E-1,-4.9959034E-2,4.6813864E-1,-5.7528533E-2,-9.668762E-3,5.681128E-1,-7.013752E-2,-1.23733476E-1],"categories":[],"categories_nodes":[],"categories_segments":[],"categories_sizes":[],"default_left":[1,1,1,1,1,1,1,1,1,0,1,1,1,1,1,1,1,1,1,0,1,1,1,1,1,1,1,1,0,1,1,0,0,1,1,0,0,1,1,1,1,1,1,1,1,1,1,1,1,1,0,1,1,0,0,0,0,0,0,0,0,0,0,0,0,0,0,0,0,0,0,0,0,0,0,0,0,0,0,0,0,0,0,0,0,0,0,0,0,0,0],"id":8,"left_children":[1,3,5,7,9,11,13,15,17,-1,19,21,23,25,27,29,31,33,35,-1,37,39,41,43,45,47,49,51,-1,53,55,-1,-1,57,59,-1,-1,61,63,65,67,69,71,73,75,77,79,81,83,85,-1,87,89,-1,-1,-1,-1,-1,-1,-1,-1,-1,-1,-1,-1,-1,-1,-1,-1,-1,-1,-1,-1,-1,-1,-1,-1,-1,-1,-1,-1,-1,-1,-1,-1,-1,-1,-1,-1,-1,-1],"loss_changes":[1.2833095E-1,1.0696196E-1,1.0952401E-1,1.1436634E-1,1.2534109E-1,1.4932585E-1,2.2218746E-1,3.826634E-1,4.0170375E-1,0E0,1.3507846E-1,1.5844792E-1,3.583846E-1,1.9517213E-1,3.1999955E-1,8.573441E-2,4.072818E-2,1.9034877E-1,5.963272E-1,0E0,2.2997604E-1,9.796685E-2,3.7324637E-2,4.18988E-1,1.8580306E-1,3.8065255E-2,3.9017564E-1,2.4636981E-1,0E0,3.2064798E-1,3.2585084E-1,0E0,0E0,1.5860331E-1,9.272139E-2,0E0,0E0,8.205176E-2,9.606056E-2,5.1006377E-1,3.235776E-1,3.3272803E-3,3.857917E-2,3.358444E-1,3.5227692E-1,1.191615E-1,1.5685962E-1,6.778106E-2,1.6560018E-2,5.791696E-1,0E0,8.8712955E-1,3.457278E-3,0E0,0E0,0E0,0E0,0E0,0E0,0E0,0E0,0E0,0E0,0E0,0E0,0E0,0E0,0E0,0E0,0E0,0E0,0E0,0E0,0E0,0E0,0E0,0E0,0E0,0E0,0E0,0E0,0E0,0E0,0E0,0E0,0E0,0E0,0E0,0E0,0E0,0E0],"parents":[2147483647,0,0,1,1,2,2,3,3,4,4,5,5,6,6,7,7,8,8,10,10,11,11,12,12,13,13,14,14,15,15,16,16,17,17,18,18,20,20,21,21,22,22,23,23,24,24,25,25,26,26,27,27,29,29,30,30,33,33,34,34,37,37,38,38,39,39,40,40,41,41,42,42,43,43,44,44,45,45,46,46,47,47,48,48,49,49,51,51,52,52],"right_children":[2,4,6,8,10,12,14,16,18,-1,20,22,24,26,28,30,32,34,36,-1,38,40,42,44,46,48,50,52,-1,54,56,-1,-1,58,60,-1,-1,62,64,66,68,70,72,74,76,78,80,82,84,86,-1,88,90,-1,-1,-1,-1,-1,-1,-1,-1,-1,-1,-1,-1,-1,-1,-1,-1,-1,-1,-1,-1,-1,-1,-1,-1,-1,-1,-1,-1,-1,-1,-1,-1,-1,-1,-1,-1,-1,-1],"split_conditions":[-8.9893574E-1,5E-1,5E-1,3.2458767E-1,-8.775889E-1,7.0353395E-1,7.0353395E-1,5E-1,5E-1,4.2787567E-2,-1.0616082E0,2.8425314E0,-8.55733E-2,1.5267644E0,4.1439114E0,5E-1,7.0353395E-1,1.1260388E0,-2.041156E-1,-5.6258522E-2,5E-1,2.3977168E-1,1.3264015E0,7.253132E-1,7.253132E-1,5E-1,5E-1,2.3977168E-1,8.4388554E-2,5E-1,5E-1,-6.432299E-2,-1.0288856E-2,-1.0616082E0,1.9274899E0,1.6292219E-1,-3.4729756E-2,-2.041156E-1,-1.1117651E0,5E-1,5E-1,5E-1,-1.1117651E0,-4.109183E-1,5E-1,3.4932215E0,1.703824E0,-7.362633E-1,1.2971429E0,-1.1117651E0,-2.7744519E-2,7.709919E-2,3.5745578E0,1.499886E-2,-1.7711412E-2,7.402537E-3,-3.0874508E-2,-4.302718E-2,-1.1386619E-2,9.039616E-3,-1.1037536E-2,-1.0865209E-2,3.303554E-2,-1.3778001E-2,-6.8121135E-2,-7.3440126E-3,5.254947E-3,-1.1865007E-2,3.6036544E-3,-1.9552E-2,-2.8412903E-2,-2.0235362E-2,2.1433184E-2,-1.0597602E-2,-2.9020293E-2,-4.778837E-3,4.821104E-2,-1.8630056E-3,3.5143346E-2,-3.1565268E-2,1.891672E-2,4.0256223E-3,-2.2917205E-2,-3.1633127E-2,-1.4987711E-2,1.404416E-1,-1.725856E-2,-2.9006286E-3,1.7043385E-1,-2.1041257E-2,-3.7120044E-2],"split_indices":[1,11,6,2,2,0,0,4,4,0,1,1,1,2,1,12,0,2,0,0,12,1,2,2,2,12,12,1,0,5,10,0,0,1,2,0,0,0,0,12,10,10,0,1,9,1,1,1,1,0,0,1,1,0,0,0,0,0,0,0,0,0,0,0,0,0,0,0,0,0,0,0,0,0,0,0,0,0,0,0,0,0,0,0,0,0,0,0,0,0,0],"split_type":[0,0,0,0,0,0,0,0,0,0,0,0,0,0,0,0,0,0,0,0,0,0,0,0,0,0,0,0,0,0,0,0,0,0,0,0,0,0,0,0,0,0,0,0,0,0,0,0,0,0,0,0,0,0,0,0,0,0,0,0,0,0,0,0,0,0,0,0,0,0,0,0,0,0,0,0,0,0,0,0,0,0,0,0,0,0,0,0,0,0,0],"sum_hessian":[3.44E3,4.9E2,2.95E3,4.55E2,3.5E1,2.762E3,1.88E2,3.01E2,1.54E2,2E0,3.3E1,1.89E3,8.72E2,1.35E2,5.3E1,2.92E2,9E0,1.5E2,4E0,7E0,2.6E1,1.841E3,4.9E1,4.56E2,4.16E2,1.18E2,1.7E1,5E1,3E0,1.81E2,1.11E2,7E0,2E0,6.8E1,8.2E1,2E0,2E0,1.4E1,1.2E1,1.247E3,5.94E2,4.3E1,6E0,3.59E2,9.7E1,3.79E2,3.7E1,5.4E1,6.4E1,7E0,1E1,2.5E1,2.5E1,1.49E2,3.2E1,8.6E1,2.5E1,2E1,4.8E1,4.6E1,3.6E1,6E0,8E0,7E0,5E0,7.93E2,4.54E2,4.24E2,1.7E2,2.2E1,2.1E1,3E0,3E0,1.77E2,1.82E2,8.5E1,1.2E1,3.72E2,7E0,3.1E1,6E0,1E1,4.4E1,5.5E1,9E0,3E0,4E0,2.3E1,2E0,2.2E1,3E0],"tree_param":{"num_deleted":"0","num_feature":"14","num_nodes":"91","size_leaf_vector":"0"}},{"base_weights":[-1.3888203E-2,-1.2216697E-2,-2.9661778E-2,-1.51950205E-2,-7.29735E-4,-4.5792364E-2,8.2758665E-3,-9.398782E-3,-3.1127011E-2,1.1453316E-2,-4.6568695E-2,-2.9434063E-2,-8.80174E-2,1.5006803E-1,-6.168559E-2,6.939559E-2,-1.1123772E-2,-2.1407478E-2,-6.733385E-2,7.186534E-2,-4.6549942E-3,-1.022938E-1,9.841237E-3,4.27107E-3,-4.8689052E-2,6.8302274E-2,-9.416162E-2,2.3375282E-1,-9.906391E-2,7.3517986E-2,-8.126435E-2,3.6053476E-1,1.5977042E-2,-8.937624E-3,-6.675344E-2,-5.241448E-3,-6.493832E-2,-1.1482494E-1,-4.2608947E-2,1.019919E-1,-1.1971031E-1,-1.2885549E-2,9.091347E-2,-1.1333559E-1,3.1875306E-1,1.1048558E-1,-4.7566716E-2,-2.9941939E-2,2.3895162E-1,-7.512224E-2,-2.2331817E-2,1.6858304E-1,-6.6129625E-2,-1.21411845E-1,-7.497785E-2,-8.7591454E-2,2.8155392E-1,2.2128169E-1,-8.894932E-2,-1.0719211E-2,-9.9047795E-2,1.51546E-2,5.294362E-1,-2.2772051E-2,3.1228825E-1,-6.609944E-3,-5.1258523E-2,-8.0205075E-2,2.4694975E-1,-1.2448111E-1,1.3608576E-3,1.0086664E-3,-1.2638222E-1,-1.5444775E-1,-8.242205E-2,4.188897E-2,-7.781096E-2,2.8162336E-1,5.2064586E-2,-1.2707378E-1,-4.7898527E-2,-3.490445E-2,2.1286763E-2,-1.521483E-2,1.5535119E-1,7.472035E-2,-1.2331821E-1,1.9240892E-1,-5.6534674E-2,-6.963234E-2,2.7720758E-1,-8.9008875E-2,1.3350381E-1,6.233281E-1,-1.1633986E-1,1.4079642E-1,-3.4450687E-2,-7.800282E-2,-1.2677322E-2,4.7470042E-1,1.11321695E-1,-1.2058579E-1,-2.7663087E-2,-1.4658406E-1,1.7222047E-1,-1.403223E-1,-7.09815E-2],"categories":[],"categories_nodes":[],"categories_segments":[],"categories_sizes":[],"default_left":[1,1,1,1,1,1,1,1,1,1,1,1,1,1,1,1,1,1,1,1,1,1,1,1,1,1,1,1,0,1,1,1,1,1,1,1,1,1,1,1,1,1,1,1,0,1,1,1,1,0,1,0,0,0,1,0,1,0,1,1,1,0,0,0,0,0,0,0,0,0,0,0,0,0,0,0,0,0,0,0,0,0,0,0,0,0,0,0,0,0,0,0,0,0,0,0,0,0,0,0,0,0,0,0,0,0,0],"id":9,"left_children":[1,3,5,7,9,11,13,15,17,19,21,23,25,27,29,31,33,35,37,39,41,43,45,47,49,51,53,55,-1,57,59,61,63,65,67,69,71,73,75,77,79,81,83,85,-1,87,89,91,93,-1,95,-1,-1,-1,97,-1,99,-1,101,103,105,-1,-1,-1,-1,-1,-1,-1,-1,-1,-1,-1,-1,-1,-1,-1,-1,-1,-1,-1,-1,-1,-1,-1,-1,-1,-1,-1,-1,-1,-1,-1,-1,-1,-1,-1,-1,-1,-1,-1,-1,-1,-1,-1,-1,-1,-1],"loss_changes":[9.0361655E-2,1.0649052E-1,2.0171264E-1,2.279858E-1,3.5906366E-1,1.5696785E-1,9.913357E-1,2.4732983E-1,2.3046958E-1,4.9468744E-1,4.253723E-1,1.09238595E-1,6.7901015E-2,7.1115863E-1,1.8333128E-1,6.007767E-1,2.15391E-1,3.662982E-1,1.5832299E-1,6.297616E-1,3.173772E-1,3.5226566E-1,3.9814487E-1,5.049606E-1,7.28699E-2,5.1591128E-2,2.3308039E-2,4.0867698E-1,0E0,2.3574382E-1,7.295591E-2,3.419879E-1,3.9749235E-1,1.6811246E-1,3.0253458E-1,3.001142E-1,5.714651E-1,4.7613084E-2,2.7988762E-1,8.1940925E-1,1.8451065E-3,2.798971E-1,2.2120091E-1,1.3499302E-1,0E0,3.5294914E-1,3.3462188E-1,5.428662E-1,1.1650434E0,0E0,1.1358168E-1,0E0,0E0,0E0,6.360948E-3,0E0,6.705102E-1,0E0,6.358627E-3,3.4836075E-1,4.44856E-2,0E0,0E0,0E0,0E0,0E0,0E0,0E0,0E0,0E0,0E0,0E0,0E0,0E0,0E0,0E0,0E0,0E0,0E0,0E0,0E0,0E0,0E0,0E0,0E0,0E0,0E0,0E0,0E0,0E0,0E0,0E0,0E0,0E0,0E0,0E0,0E0,0E0,0E0,0E0,0E0,0E0,0E0,0E0,0E0,0E0,0E0],"parents":[2147483647,0,0,1,1,2,2,3,3,4,4,5,5,6,6,7,7,8,8,9,9,10,10,11,11,12,12,13,13,14,14,15,15,16,16,17,17,18,18,19,19,20,20,21,21,22,22,23,23,24,24,25,25,26,26,27,27,29,29,30,30,31,31,32,32,33,33,34,34,35,35,36,36,37,37,38,38,39,39,40,40,41,41,42,42,43,43,45,45,46,46,47,47,48,48,50,50,54,54,56,56,58,58,59,59,60,60],"right_children":[2,4,6,8,10,12,14,16,18,20,22,24,26,28,30,32,34,36,38,40,42,44,46,48,50,52,54,56,-1,58,60,62,64,66,68,70,72,74,76,78,80,82,84,86,-1,88,90,92,94,-1,96,-1,-1,-1,98,-1,100,-1,102,104,106,-1,-1,-1,-1,-1,-1,-1,-1,-1,-1,-1,-1,-1,-1,-1,-1,-1,-1,-1,-1,-1,-1,-1,-1,-1,-1,-1,-1,-1,-1,-1,-1,-1,-1,-1,-1,-1,-1,-1,-1,-1,-1,-1,-1,-1,-1],"split_conditions":[5E-1,7.253132E-1,3.2458767E-1,-7.613785E-2,5E-1,-4.7686338E-1,7.253132E-1,-1.0616082E0,5E-1,1.1260388E0,-2.041156E-1,-4.109183E-1,-8.9893574E-1,5E-1,-1.1117651E0,-1.1117651E0,5E-1,5E-1,-7.362633E-1,5E-1,5E-1,1.6224878E0,-7.362633E-1,-5.7359076E-1,4.0244418E-1,-2.0411563E-1,-4.109183E-1,-8.9893574E-1,-2.9719174E-2,-5.7359076E-1,-8.9893574E-1,-6.772261E-1,5E-1,5E-1,3.1678767E0,-1.0616082E0,5E-1,-2.041156E-1,-4.109183E-1,-1.1117651E0,-2.4824579E-1,-2.4824579E-1,-5.7359076E-1,-1.0616082E0,9.562592E-2,7.0353395E-1,2.3545141E0,5E-1,-8.775889E-1,-2.2536673E-2,-1.1117651E0,5.0574914E-2,-1.9838888E-2,-3.6423557E-2,2.5171866E0,-2.6277438E-2,7.709919E-2,6.638451E-2,1.6224879E0,1.5267644E0,-5.7359076E-1,4.54638E-3,1.5883085E-1,-6.8316157E-3,9.368648E-2,-1.9829834E-3,-1.5377558E-2,-2.4061523E-2,7.408493E-2,-3.7344337E-2,4.082573E-4,3.0259992E-4,-3.7914667E-2,-4.6334326E-2,-2.4726616E-2,1.2566692E-2,-2.3343287E-2,8.448701E-2,1.5619377E-2,-3.8122136E-2,-1.4369559E-2,-1.0471336E-2,6.386029E-3,-4.564449E-3,4.660536E-2,2.2416107E-2,-3.6995463E-2,5.7722677E-2,-1.6960403E-2,-2.0889701E-2,8.316228E-2,-2.6702663E-2,4.0051144E-2,1.8699843E-1,-3.490196E-2,4.223893E-2,-1.0335207E-2,-2.3400847E-2,-3.8031968E-3,1.4241013E-1,3.339651E-2,-3.617574E-2,-8.298927E-3,-4.397522E-2,5.1666144E-2,-4.209669E-2,-2.1294452E-2],"split_indices":[7,2,2,2,10,2,2,1,5,2,0,1,1,12,0,0,4,9,1,6,8,1,1,1,1,0,1,1,0,1,1,2,5,8,1,1,12,0,1,0,1,1,1,1,0,0,1,12,2,0,0,0,0,0,1,0,1,0,1,2,1,0,0,0,0,0,0,0,0,0,0,0,0,0,0,0,0,0,0,0,0,0,0,0,0,0,0,0,0,0,0,0,0,0,0,0,0,0,0,0,0,0,0,0,0,0,0],"split_type":[0,0,0,0,0,0,0,0,0,0,0,0,0,0,0,0,0,0,0,0,0,0,0,0,0,0,0,0,0,0,0,0,0,0,0,0,0,0,0,0,0,0,0,0,0,0,0,0,0,0,0,0,0,0,0,0,0,0,0,0,0,0,0,0,0,0,0,0,0,0,0,0,0,0,0,0,0,0,0,0,0,0,0,0,0,0,0,0,0,0,0,0,0,0,0,0,0,0,0,0,0,0,0,0,0,0,0],"sum_hessian":[3.44E3,3.112E3,3.28E2,2.471E3,6.41E2,2.3E2,9.8E1,1.813E3,6.58E2,5.07E2,1.34E2,1.67E2,6.3E1,3.2E1,6.6E1,3.8E1,1.775E3,5.2E2,1.38E2,1.06E2,4.01E2,6.7E1,6.7E1,6.1E1,1.06E2,2E0,6.1E1,2.4E1,8E0,8E0,5.8E1,5E0,3.3E1,1.709E3,6.6E1,3.8E2,1.4E2,4.6E1,9.2E1,9.2E1,1.4E1,3.7E2,3.1E1,6.6E1,1E0,2.4E1,4.3E1,5.4E1,7E0,5.2E1,5.4E1,1E0,1E0,2.3E1,3.8E1,3E0,2.1E1,4E0,4E0,1.2E1,4.6E1,2E0,3E0,3E1,3E0,1.621E3,8.8E1,6.4E1,2E0,1.9E1,3.61E2,6.8E1,7.2E1,1.9E1,2.7E1,2.7E1,6.5E1,1.9E1,7.3E1,1.2E1,2E0,2.25E2,1.45E2,1.2E1,1.9E1,3E0,6.3E1,1.6E1,8E0,4.1E1,2E0,4E1,1.4E1,3E0,4E0,3E0,5.1E1,3.6E1,2E0,9E0,1.2E1,2E0,2E0,7E0,5E0,1.7E1,2.9E1],"tree_param":{"num_deleted":"0","num_feature":"14","num_nodes":"107","size_leaf_vector":"0"}},{"base_weights":[-9.540368E-3,-8.062597E-3,-2.5814155E-2,-9.31993E-3,2.0362621E-2,-3.07621E-2,6.562952E-2,-8.146427E-3,-4.389749E-2,8.175479E-2,-4.0426172E-2,-2.128605E-2,-7.1407616E-2,-1.3803972E-1,2.6109508E-1,-6.2101204E-3,-2.7241666E-2,-5.4885976E-2,1.355717E-1,1.5903908E-1,-6.3339524E-2,-7.536218E-2,4.135262E-2,-2.3392595E-2,9.9368826E-2,-9.953115E-2,5.3851977E-2,-1.9655952E-1,-3.0380057E-2,4.0292117E-1,9.541518E-2,-9.731192E-3,7.452695E-3,-1.4587306E-2,-8.990809E-2,-1.236143E-1,-3.9203063E-2,-1.4951771E-1,4.7050035E-1,7.899947E-2,5.0934243E-1,-7.460484E-2,-2.532308E-2,-8.803803E-2,-1.0651493E-2,-3.8685594E-2,3.9118642E-1,-8.289617E-3,-4.6653137E-2,2.709401E-1,-4.8134957E-2,-6.7897104E-2,-1.4205785E-1,1.704869E-2,6.718928E-2,-3.853449E-2,1.9755979E-1,-2.242091E-3,-2.0470465E-2,1.923436E-2,-3.3990778E-2,-3.006551E-3,-9.940149E-2,-1.2570368E-1,9.135948E-2,-6.505194E-2,6.502709E-2,1.4338706E-1,-5.089971E-2,-8.63724E-2,7.223094E-1,-8.3408006E-2,-2.2941744E-2,-9.103342E-2,-2.0750396E-2,-8.2706555E-4,-3.002466E-2,-7.228748E-3,-5.381162E-2,-3.0859124E-2,2.7894206E-2,-5.889512E-2,-3.0389844E-2,-3.4245506E-2,-8.678901E-2,-8.3285004E-2,-1.7487034E-1],"categories":[],"categories_nodes":[],"categories_segments":[],"categories_sizes":[],"default_left":[1,1,1,1,1,1,1,1,1,1,1,1,1,1,1,1,1,1,1,1,1,1,1,1,1,1,1,0,0,0,1,1,1,1,1,0,1,0,0,1,1,1,0,1,1,1,0,1,1,0,0,1,1,0,0,0,0,0,0,0,0,0,0,0,0,0,0,0,0,0,0,0,0,0,0,0,0,0,0,0,0,0,0,0,0,0,0],"id":10,"left_children":[1,3,5,7,9,11,13,15,17,19,21,23,25,27,29,31,33,35,37,39,41,43,45,47,49,51,53,-1,-1,-1,55,57,59,61,63,-1,65,-1,-1,67,69,71,-1,73,75,77,-1,79,81,-1,-1,83,85,-1,-1,-1,-1,-1,-1,-1,-1,-1,-1,-1,-1,-1,-1,-1,-1,-1,-1,-1,-1,-1,-1,-1,-1,-1,-1,-1,-1,-1,-1,-1,-1,-1,-1],"loss_changes":[8.254424E-2,1.12985075E-1,1.3142198E-1,1.2230635E-1,5.033871E-1,1.0324323E-1,6.331963E-1,1.0798046E-1,2.0267837E-1,7.6137865E-1,1.973941E-1,5.8749117E-2,1.8501979E-1,4.443027E-2,1.4953709E-1,1.2789482E-1,2.120064E-1,9.647283E-2,6.432558E-1,1.1934406E0,8.389182E-3,3.8434863E-2,6.031348E-1,7.654872E-2,1.1427134E-1,4.685694E-2,3.763076E-3,0E0,0E0,0E0,7.602404E-2,1.698974E-1,2.667626E-1,2.2069892E-1,3.0347034E-1,0E0,2.143803E-1,0E0,0E0,3.167625E-1,1.0773282E0,6.27286E-3,0E0,6.173134E-3,1.68814E-3,8.175718E-3,0E0,1.10292025E-1,1.5332356E-2,0E0,0E0,1.3557181E-2,1.8220156E-2,0E0,0E0,0E0,0E0,0E0,0E0,0E0,0E0,0E0,0E0,0E0,0E0,0E0,0E0,0E0,0E0,0E0,0E0,0E0,0E0,0E0,0E0,0E0,0E0,0E0,0E0,0E0,0E0,0E0,0E0,0E0,0E0,0E0,0E0],"parents":[2147483647,0,0,1,1,2,2,3,3,4,4,5,5,6,6,7,7,8,8,9,9,10,10,11,11,12,12,13,13,14,14,15,15,16,16,17,17,18,18,19,19,20,20,21,21,22,22,23,23,24,24,25,25,26,26,30,30,31,31,32,32,33,33,34,34,36,36,39,39,40,40,41,41,43,43,44,44,45,45,47,47,48,48,51,51,52,52],"right_children":[2,4,6,8,10,12,14,16,18,20,22,24,26,28,30,32,34,36,38,40,42,44,46,48,50,52,54,-1,-1,-1,56,58,60,62,64,-1,66,-1,-1,68,70,72,-1,74,76,78,-1,80,82,-1,-1,84,86,-1,-1,-1,-1,-1,-1,-1,-1,-1,-1,-1,-1,-1,-1,-1,-1,-1,-1,-1,-1,-1,-1,-1,-1,-1,-1,-1,-1,-1,-1,-1,-1,-1,-1],"split_conditions":[1.703824E0,1.0531341E0,5E-1,7.2778916E-1,5E-1,5E-1,1.8664966E0,5E-1,2.3282156E0,-4.7686338E-1,-7.613785E-2,2.3282156E0,3.4932215E0,7.0353395E-1,7.0353395E-1,7.253132E-1,1.1260388E0,-1.1117651E0,5E-1,5E-1,5E-1,5E-1,5E-1,5E-1,-2.0411563E-1,5E-1,3.8185666E0,-5.896786E-2,-9.114018E-3,1.2087636E-1,3.1678767E0,-4.7686338E-1,5E-1,4.0244418E-1,2.3282156E0,-3.708429E-2,5E-1,-4.4855315E-2,1.4115012E-1,1.3784791E0,1.3784791E0,5E-1,-7.5969244E-3,-4.7686338E-1,7.0353395E-1,7.253132E-1,1.1735593E-1,2.3545141E0,-2.7650064E-1,8.1282035E-2,-1.4440487E-2,2.3545141E0,2.1918416E0,5.1146075E-3,2.0156786E-2,-1.1560347E-2,5.9267938E-2,-6.7262736E-4,-6.1411397E-3,5.770308E-3,-1.0197233E-2,-9.019653E-4,-2.9820448E-2,-3.7711106E-2,2.7407845E-2,-1.9515583E-2,1.9508127E-2,4.301612E-2,-1.5269914E-2,-2.591172E-2,2.1669284E-1,-2.5022402E-2,-6.8825237E-3,-2.7310027E-2,-6.225119E-3,-2.4811967E-4,-9.007399E-3,-2.1686244E-3,-1.6143488E-2,-9.257738E-3,8.368262E-3,-1.7668536E-2,-9.116953E-3,-1.0273652E-2,-2.6036704E-2,-2.4985502E-2,-5.2461106E-2],"split_indices":[1,1,4,1,12,9,1,3,2,2,2,2,1,0,0,2,2,0,3,10,9,7,4,12,0,12,1,0,0,0,1,2,10,1,2,0,12,0,0,1,1,7,0,2,0,2,0,1,2,0,0,1,1,0,0,0,0,0,0,0,0,0,0,0,0,0,0,0,0,0,0,0,0,0,0,0,0,0,0,0,0,0,0,0,0,0,0],"split_type":[0,0,0,0,0,0,0,0,0,0,0,0,0,0,0,0,0,0,0,0,0,0,0,0,0,0,0,0,0,0,0,0,0,0,0,0,0,0,0,0,0,0,0,0,0,0,0,0,0,0,0,0,0,0,0,0,0,0,0,0,0,0,0,0,0,0,0,0,0,0,0,0,0,0,0,0,0,0,0,0,0,0,0,0,0,0,0],"sum_hessian":[3.44E3,3.155E3,2.85E2,3.022E3,1.33E2,2.71E2,1.4E1,2.924E3,9.8E1,6.6E1,6.7E1,2.21E2,5E1,7E0,7E0,2.656E3,2.68E2,9.3E1,5E0,4.3E1,2.3E1,4.7E1,2E1,2.18E2,3E0,4.1E1,9E0,4E0,3E0,3E0,4E0,2.112E3,5.44E2,2.24E2,4.4E1,1.6E1,7.7E1,3E0,2E0,3.6E1,7E0,1.7E1,6E0,3.9E1,8E0,1.7E1,3E0,1.33E2,8.5E1,1E0,2E0,2.5E1,1.6E1,3E0,6E0,2E0,2E0,1.245E3,8.67E2,4.24E2,1.2E2,1.98E2,2.6E1,3.7E1,7E0,6.2E1,1.5E1,2.4E1,1.2E1,2E0,5E0,1.4E1,3E0,3.7E1,2E0,6E0,2E0,6E0,1.1E1,8.2E1,5.1E1,4.7E1,3.8E1,1E1,1.5E1,7E0,9E0],"tree_param":{"num_deleted":"0","num_feature":"14","num_nodes":"87","size_leaf_vector":"0"}},{"base_weights":[-6.5929918E-3,-5.3327484E-3,-1.8497383E-2,6.3701244E-3,-7.2615305E-3,-2.900786E-2,6.2139025E-3,1.2894484E-1,2.6408904E-3,-5.803802E-3,-2.6389536E-2,-1.8665865E-2,-5.5702347E-2,1.1472771E-1,-4.7325943E-2,2.4554E-1,-1.9477925E-1,1.2281758E-2,-2.2286693E-2,-8.637812E-3,5.2972706E-3,-4.1057833E-2,1.1041536E-2,6.3199964E-3,-3.2969207E-2,6.2151026E-2,-6.0506504E-2,4.9481682E-2,4.7020915E-1,5.207613E-2,-6.168684E-2,7.909677E-2,3.4331936E-1,7.408195E-3,5.296566E-2,-3.5931103E-2,2.9872096E-1,-3.490388E-3,-2.3045875E-2,5.7178754E-2,-7.146942E-3,-6.0685337E-2,-6.0848226E-3,-5.0316933E-3,2.1321483E-1,-2.0056259E-2,1.8686675E-1,-5.235085E-2,-1.369291E-2,1.4636615E-1,-5.3139612E-2,-8.062068E-2,-4.6577107E-2,1.2679906E-1,-1.364235E-1,-5.3152077E-2,6.143375E-1,1.6355784E-1,-6.98208E-2,-8.665133E-2,-1.5762404E-2,1.2724956E-2,1.1910299E-1,-8.966003E-3,2.5850737E-2,9.414077E-2,-6.729472E-2,-1.909539E-2,-1.1578775E-1,2.2966726E-2,-8.354467E-3,-1.0732547E-2,-6.322854E-2,1.9011216E-1,1.8455202E-2,-3.0425832E-2,1.4207307E-2,-8.542381E-2,-3.4567647E-2,6.989366E-2,-5.4906916E-2,5.2154563E-2,-6.2024426E-2,-6.2301278E-2,9.675054E-2,4.8358375E-1,-8.7880194E-2,-6.430723E-2,-4.544249E-2,1.09621696E-1,-2.2915324E-2,-9.29078E-2,-4.9819037E-2,-5.1067527E-2,-1.3368541E-2,2.5134408E-1,-6.718808E-2,-1.00315504E-1,-1.6052501E-2,-1.476748E-1,-4.490119E-2,1.5886472E-1,-7.6468304E-2],"categories":[],"categories_nodes":[],"categories_segments":[],"categories_sizes":[],"default_left":[1,1,1,1,1,1,1,1,1,1,1,1,1,1,1,1,0,1,1,1,1,1,1,1,1,1,1,1,1,1,1,1,0,1,1,1,0,1,1,1,1,1,1,1,0,1,1,1,1,0,0,1,1,1,0,0,0,0,1,1,1,0,0,0,0,0,0,0,0,0,0,0,0,0,0,0,0,0,0,0,0,0,0,0,0,0,0,0,0,0,0,0,0,0,0,0,0,0,0,0,0,0,0],"id":11,"left_children":[1,3,5,7,9,11,13,15,17,19,21,23,25,27,29,31,-1,33,35,37,39,41,43,45,47,49,51,53,55,57,59,61,-1,63,65,67,-1,69,71,73,75,77,79,81,-1,83,85,87,89,-1,-1,91,93,95,-1,-1,-1,-1,97,99,101,-1,-1,-1,-1,-1,-1,-1,-1,-1,-1,-1,-1,-1,-1,-1,-1,-1,-1,-1,-1,-1,-1,-1,-1,-1,-1,-1,-1,-1,-1,-1,-1,-1,-1,-1,-1,-1,-1,-1,-1,-1,-1],"loss_changes":[5.152473E-2,7.0313804E-2,8.563056E-2,2.012449E-1,7.437925E-2,6.273341E-2,5.806011E-1,5.385066E-1,1.03372514E-1,7.822521E-2,1.042238E-1,6.0248427E-2,3.999646E-2,7.421271E-1,9.885509E-2,1.3559169E-1,0E0,6.107304E-2,5.3632855E-1,1.467651E-1,3.2709453E-1,9.298563E-2,1.7655003E-1,2.9900095E-1,3.925904E-2,3.6905486E-2,1.3615966E-2,4.3413574E-1,4.0980923E-1,1.3372324E-1,6.627652E-2,1.17608495E-2,0E0,8.418273E-2,1.6974238E-1,1.5374443E-1,0E0,1.8807854E-1,2.5710303E-1,5.009615E-1,2.0374748E-1,5.3258806E-2,1.8930906E-1,1.6945411E-1,0E0,2.774255E-1,6.946741E-1,1.455456E-3,6.506123E-2,0E0,0E0,4.454553E-3,5.1329955E-3,5.2425015E-1,0E0,0E0,0E0,0E0,6.5879263E-3,9.018329E-2,2.4536784E-1,0E0,0E0,0E0,0E0,0E0,0E0,0E0,0E0,0E0,0E0,0E0,0E0,0E0,0E0,0E0,0E0,0E0,0E0,0E0,0E0,0E0,0E0,0E0,0E0,0E0,0E0,0E0,0E0,0E0,0E0,0E0,0E0,0E0,0E0,0E0,0E0,0E0,0E0,0E0,0E0,0E0,0E0],"parents":[2147483647,0,0,1,1,2,2,3,3,4,4,5,5,6,6,7,7,8,8,9,9,10,10,11,11,12,12,13,13,14,14,15,15,17,17,18,18,19,19,20,20,21,21,22,22,23,23,24,24,25,25,26,26,27,27,28,28,29,29,30,30,31,31,33,33,34,34,35,35,37,37,38,38,39,39,40,40,41,41,42,42,43,43,45,45,46,46,47,47,48,48,51,51,52,52,53,53,58,58,59,59,60,60],"right_children":[2,4,6,8,10,12,14,16,18,20,22,24,26,28,30,32,-1,34,36,38,40,42,44,46,48,50,52,54,56,58,60,62,-1,64,66,68,-1,70,72,74,76,78,80,82,-1,84,86,88,90,-1,-1,92,94,96,-1,-1,-1,-1,98,100,102,-1,-1,-1,-1,-1,-1,-1,-1,-1,-1,-1,-1,-1,-1,-1,-1,-1,-1,-1,-1,-1,-1,-1,-1,-1,-1,-1,-1,-1,-1,-1,-1,-1,-1,-1,-1,-1,-1,-1,-1,-1,-1],"split_conditions":[5E-1,-8.9893574E-1,3.2458767E-1,-8.775889E-1,5E-1,-4.7686338E-1,7.253132E-1,5E-1,7.0353395E-1,7.253132E-1,7.0353395E-1,-4.109183E-1,-8.9893574E-1,2.3977168E-1,-1.1117651E0,-1.0616082E0,-5.8433775E-2,5E-1,2.3282156E0,-7.613785E-2,1.1260388E0,3.2458767E-1,4.1439114E0,-5.7359076E-1,4.0244418E-1,-2.0411563E-1,-4.109183E-1,7.709919E-2,7.0353395E-1,-5.7359076E-1,7.0353395E-1,-2.0411563E-1,1.0299581E-1,-7.613785E-2,-7.613787E-2,5E-1,8.961629E-2,-5.7359076E-1,5E-1,-1.1117651E0,-2.041156E-1,-2.4824579E-1,-1.1117651E0,2.3977168E-1,6.396445E-2,5E-1,-8.775889E-1,-1.1117651E0,-1.1117651E0,4.3909848E-2,-1.5941884E-2,2.4970919E-1,2.2731779E0,5E-1,-4.0927052E-2,-1.5945625E-2,1.8430126E-1,4.9067356E-2,1.6224879E0,-7.362633E-1,-8.1759953E-1,3.8174868E-3,3.57309E-2,-2.689801E-3,7.7552213E-3,2.8242232E-2,-2.0188415E-2,-5.728617E-3,-3.4736328E-2,6.890018E-3,-2.5063404E-3,-3.2197644E-3,-1.8968564E-2,5.703365E-2,5.536561E-3,-9.12775E-3,4.262192E-3,-2.5627146E-2,-1.0370295E-2,2.0968098E-2,-1.6472075E-2,1.564637E-2,-1.8607328E-2,-1.8690385E-2,2.9025164E-2,1.4507513E-1,-2.636406E-2,-1.9292168E-2,-1.3632748E-2,3.288651E-2,-6.8745976E-3,-2.787234E-2,-1.4945712E-2,-1.5320259E-2,-4.010563E-3,7.540323E-2,-2.0156424E-2,-3.0094652E-2,-4.8157508E-3,-4.430244E-2,-1.3470357E-2,4.765942E-2,-2.2940492E-2],"split_indices":[7,1,2,2,6,2,2,12,0,2,0,1,1,1,0,1,0,6,2,2,2,2,1,1,1,0,1,1,0,1,0,0,0,2,2,9,0,1,9,0,0,1,0,1,0,12,2,0,0,0,0,0,1,12,0,0,0,0,1,1,1,0,0,0,0,0,0,0,0,0,0,0,0,0,0,0,0,0,0,0,0,0,0,0,0,0,0,0,0,0,0,0,0,0,0,0,0,0,0,0,0,0,0],"split_type":[0,0,0,0,0,0,0,0,0,0,0,0,0,0,0,0,0,0,0,0,0,0,0,0,0,0,0,0,0,0,0,0,0,0,0,0,0,0,0,0,0,0,0,0,0,0,0,0,0,0,0,0,0,0,0,0,0,0,0,0,0,0,0,0,0,0,0,0,0,0,0,0,0,0,0,0,0,0,0,0,0,0,0,0,0,0,0,0,0,0,0,0,0,0,0,0,0,0,0,0,0,0,0],"sum_hessian":[3.44E3,3.112E3,3.28E2,4.4E2,2.672E3,2.3E2,9.8E1,1.2E1,4.28E2,2.484E3,1.88E2,1.67E2,6.3E1,3.2E1,6.6E1,9E0,3E0,3.09E2,1.19E2,1.979E3,5.05E2,1.35E2,5.3E1,6.1E1,1.06E2,2E0,6.1E1,2.8E1,4E0,8E0,5.8E1,4E0,5E0,2.77E2,3.2E1,1.15E2,4E0,1.459E3,5.2E2,9.7E1,4.08E2,8.6E1,4.9E1,5E1,3E0,5.4E1,7E0,5.2E1,5.4E1,1E0,1E0,2.3E1,3.8E1,2E1,8E0,1E0,3E0,4E0,4E0,3.7E1,2.1E1,2E0,2E0,1.47E2,1.3E2,2.4E1,8E0,9.6E1,1.9E1,2.26E2,1.233E3,3.99E2,1.21E2,2.1E1,7.6E1,1.95E2,2.13E2,4.3E1,4.3E1,1.9E1,3E1,2.5E1,2.5E1,4E1,1.4E1,3E0,4E0,1.6E1,3.6E1,3E0,5.1E1,1.5E1,8E0,3.3E1,5E0,1.2E1,8E0,2E0,2E0,1.4E1,2.3E1,5E0,1.6E1],"tree_param":{"num_deleted":"0","num_feature":"14","num_nodes":"103","size_leaf_vector":"0"}},{"base_weights":[-4.479229E-3,-8.206346E-3,-3.0898245E-4,-1.0719056E-2,3.7452664E-2,-1.9749724E-3,7.1246885E-2,-6.930157E-3,-3.6173847E-2,6.298446E-2,-5.0129414E-2,-1.6772827E-2,7.0194514E-3,2.2816248E-3,6.3963985E-1,6.80946E-3,-1.5301981E-2,-4.5842517E-2,8.3684325E-2,1.1252302E-1,1.3943067E-3,6.488173E-2,-8.7772794E-2,-8.017167E-2,-9.46264E-3,4.199939E-2,-4.4311164E-3,-1.1710389E-1,8.176332E-2,-1.38995275E-2,8.279976E-2,-1.2487035E-3,-5.1673546E-2,1.8566875E-2,-6.8696596E-2,-1.15813665E-1,2.0302993E-1,5.011807E-2,3.0096653E-1,1.3187252E-1,-9.6534066E-2,2.745536E-1,-3.1963367E-2,-1.9060166E-1,3.2675848E-3,-1.04597926E-1,2.1920733E-1,-2.664853E-3,-9.436835E-2,1.6391851E-1,-4.2372413E-2,-3.4461807E-2,2.0217E-3,-5.1192347E-2,-1.601385E-1,1.84818E-1,-2.872439E-2,-2.5596768E-2,2.5529059E-2,1.3581802E-1,-1.4273931E-2,-1.3664858E-2,3.683004E-2,-6.1965343E-2,-3.7136013E-3,-4.3664556E-2,6.1377663E-2,-5.277458E-2,-1.2499561E-1,4.5667157E-1,5.0830364E-2,9.3594044E-2,-5.4888476E-2,-3.5582215E-2,3.8955152E-1,5.3812582E-2,3.3308417E-1,-2.012371E-1,1.266626E-1,-2.7462095E-1,-1.16825074E-1,-6.47447E-2,8.422881E-2,-1.24859184E-1,6.085679E-2,4.4304892E-1,-7.7703364E-2,2.4419897E-3,-1.042651E-1,-1.14432976E-1,-6.616888E-2,3.1666663E-1,6.519116E-2,-5.18351E-2,1.5158276E-1,-6.754863E-2,-6.7950725E-3,-3.9360616E-3,5.9304617E-2,-1.7306045E-1,-3.4842424E-2,4.29873E-1,-9.103999E-2,2.3486295E-1,-7.856942E-2],"categories":[],"categories_nodes":[],"categories_segments":[],"categories_sizes":[],"default_left":[1,1,1,1,1,1,1,1,1,1,1,1,1,1,0,1,1,1,1,1,1,1,1,1,1,1,1,1,1,1,1,1,1,1,1,0,1,1,1,1,1,0,0,1,1,1,1,1,1,1,1,1,1,0,1,1,1,0,0,0,0,0,0,0,0,0,0,0,0,0,0,0,0,0,0,0,0,0,0,0,0,0,0,0,0,0,0,0,0,0,0,0,0,0,0,0,0,0,0,0,0,0,0,0,0],"id":12,"left_children":[1,3,5,7,9,11,13,15,17,19,21,23,25,27,-1,29,31,33,35,37,39,41,43,45,47,49,51,53,55,57,59,61,63,65,67,-1,69,71,73,75,77,-1,-1,79,81,83,85,87,89,91,93,95,97,-1,99,101,103,-1,-1,-1,-1,-1,-1,-1,-1,-1,-1,-1,-1,-1,-1,-1,-1,-1,-1,-1,-1,-1,-1,-1,-1,-1,-1,-1,-1,-1,-1,-1,-1,-1,-1,-1,-1,-1,-1,-1,-1,-1,-1,-1,-1,-1,-1,-1,-1],"loss_changes":[5.348091E-2,2.0886198E-1,1.9385917E-1,1.6592512E-1,2.1558951E-1,2.1161073E-1,1.4489174E0,1.7275771E-1,2.6226416E-1,2.2562358E-1,1.0094182E-1,2.7777922E-1,3.9632028E-1,3.3219954E-1,0E0,8.965761E-1,4.7682887E-1,3.0598304E-1,4.2827016E-1,4.6706825E-1,4.4716582E-1,1.3060981E-1,1.5976965E-1,4.763167E-1,3.1142083E-1,2.5168602E0,1.4463145E-1,3.1512827E-2,2.4442056E-1,2.0727357E-1,6.298334E-1,3.191648E-1,1.2810427E-1,1.4920974E-1,1.305517E-1,0E0,4.0143284E-1,1.5122563E-1,3.1199265E-1,2.176744E-1,4.928766E-1,0E0,0E0,1.750663E-2,6.051695E-2,2.020331E-1,3.6673117E-1,2.6020172E-1,1.5060574E-2,1.4873979E0,2.7398127E-1,1.203744E-1,2.1011937E-1,0E0,6.922707E-3,7.8273976E-1,1.6297676E-1,0E0,0E0,0E0,0E0,0E0,0E0,0E0,0E0,0E0,0E0,0E0,0E0,0E0,0E0,0E0,0E0,0E0,0E0,0E0,0E0,0E0,0E0,0E0,0E0,0E0,0E0,0E0,0E0,0E0,0E0,0E0,0E0,0E0,0E0,0E0,0E0,0E0,0E0,0E0,0E0,0E0,0E0,0E0,0E0,0E0,0E0,0E0,0E0],"parents":[2147483647,0,0,1,1,2,2,3,3,4,4,5,5,6,6,7,7,8,8,9,9,10,10,11,11,12,12,13,13,15,15,16,16,17,17,18,18,19,19,20,20,21,21,22,22,23,23,24,24,25,25,26,26,27,27,28,28,29,29,30,30,31,31,32,32,33,33,34,34,36,36,37,37,38,38,39,39,40,40,43,43,44,44,45,45,46,46,47,47,48,48,49,49,50,50,51,51,52,52,54,54,55,55,56,56],"right_children":[2,4,6,8,10,12,14,16,18,20,22,24,26,28,-1,30,32,34,36,38,40,42,44,46,48,50,52,54,56,58,60,62,64,66,68,-1,70,72,74,76,78,-1,-1,80,82,84,86,88,90,92,94,96,98,-1,100,102,104,-1,-1,-1,-1,-1,-1,-1,-1,-1,-1,-1,-1,-1,-1,-1,-1,-1,-1,-1,-1,-1,-1,-1,-1,-1,-1,-1,-1,-1,-1,-1,-1,-1,-1,-1,-1,-1,-1,-1,-1,-1,-1,-1,-1,-1,-1,-1,-1],"split_conditions":[-2.4824579E-1,5E-1,2.3282156E0,1.5267644E0,7.0353395E-1,-2.041156E-1,5E-1,-2.041156E-1,5E-1,5E-1,-1.0616082E0,-8.55733E-2,7.709919E-2,3.2110792E-1,1.9189197E-1,5E-1,-4.109183E-1,-8.9893574E-1,1.9274899E0,-4.109183E-1,-7.362633E-1,-2.7650064E-1,-7.362633E-1,5E-1,5E-1,7.0353395E-1,-8.775889E-1,7.709919E-2,1.2158066E0,-4.109183E-1,5E-1,5E-1,3.2458767E-1,5E-1,7.0353395E-1,-3.4744103E-2,-6.54927E-1,3.2458767E-1,-4.7686338E-1,-8.9893574E-1,1.1260388E0,8.236608E-2,-9.589011E-3,-4.7686338E-1,9.25676E-1,5E-1,-1.1117651E0,1.9274899E0,-1.1117651E0,-8.55733E-2,5E-1,7.0353395E-1,5E-1,-1.5357705E-2,-2.041156E-1,5E-1,-1.1117651E0,-7.6790308E-3,7.6587177E-3,4.0745407E-2,-4.2821798E-3,-4.0994575E-3,1.1049013E-2,-1.8589603E-2,-1.1140804E-3,-1.3099368E-2,1.84133E-2,-1.5832374E-2,-3.7498686E-2,1.3700147E-1,1.524911E-2,2.8078215E-2,-1.6466543E-2,-1.0674665E-2,1.1686546E-1,1.6143775E-2,9.992526E-2,-6.037113E-2,3.799878E-2,-8.2386285E-2,-3.5047524E-2,-1.9423412E-2,2.5268646E-2,-3.7457757E-2,1.8257037E-2,1.3291468E-1,-2.331101E-2,7.3259696E-4,-3.127953E-2,-3.4329895E-2,-1.9850666E-2,9.499999E-2,1.9557348E-2,-1.55505305E-2,4.547483E-2,-2.026459E-2,-2.038522E-3,-1.1808185E-3,1.7791387E-2,-5.1918138E-2,-1.0452728E-2,1.289619E-1,-2.7312E-2,7.045889E-2,-2.3570826E-2],"split_indices":[1,8,2,2,0,0,5,0,11,12,1,1,1,1,0,9,1,1,2,1,1,2,1,3,3,0,2,1,1,1,12,10,2,12,0,0,1,2,2,1,2,0,0,2,2,6,0,2,0,1,7,0,3,0,0,10,0,0,0,0,0,0,0,0,0,0,0,0,0,0,0,0,0,0,0,0,0,0,0,0,0,0,0,0,0,0,0,0,0,0,0,0,0,0,0,0,0,0,0,0,0,0,0,0,0],"split_type":[0,0,0,0,0,0,0,0,0,0,0,0,0,0,0,0,0,0,0,0,0,0,0,0,0,0,0,0,0,0,0,0,0,0,0,0,0,0,0,0,0,0,0,0,0,0,0,0,0,0,0,0,0,0,0,0,0,0,0,0,0,0,0,0,0,0,0,0,0,0,0,0,0,0,0,0,0,0,0,0,0,0,0,0,0,0,0,0,0,0,0,0,0,0,0,0,0,0,0,0,0,0,0,0,0],"sum_hessian":[3.44E3,1.816E3,1.624E3,1.722E3,9.4E1,1.588E3,3.6E1,1.5E3,2.22E2,7.3E1,2.1E1,6E2,9.88E2,3.3E1,3E0,5.68E2,9.32E2,2.06E2,1.6E1,4E1,3.3E1,5E0,1.6E1,6.1E1,5.39E2,2.43E2,7.45E2,1.3E1,2E1,4.47E2,1.21E2,6.73E2,2.59E2,5.4E1,1.52E2,6E0,1E1,3.1E1,9E0,1.4E1,1.9E1,1E0,4E0,7E0,9E0,5.7E1,4E0,5E2,3.9E1,9.9E1,1.44E2,1.31E2,6.14E2,6E0,7E0,1E1,1E1,3.45E2,1.02E2,7.8E1,4.3E1,5.08E2,1.65E2,2.13E2,4.6E1,2.2E1,3.2E1,1.2E2,3.2E1,3E0,7E0,2.2E1,9E0,2E0,7E0,1.1E1,3E0,1.3E1,6E0,2E0,5E0,5E0,4E0,5.1E1,6E0,2E0,2E0,4.77E2,2.3E1,2.1E1,1.8E1,3.8E1,6.1E1,1.38E2,6E0,5.9E1,7.2E1,5.57E2,5.7E1,6E0,1E0,5E0,5E0,1E0,9E0],"tree_param":{"num_deleted":"0","num_feature":"14","num_nodes":"105","size_leaf_vector":"0"}},{"base_weights":[-2.9398685E-3,-2.5238148E-3,-2.2100754E-2,-2.821287E-3,4.742895E-2,-2.9505251E-2,1.6050594E-1,-2.1442424E-3,-2.0871142E-2,-3.4176778E-2,1.509667E-1,3.2782212E-2,-4.272952E-2,1.9331655E-3,-5.8933115E-3,-3.1725097E-2,1.9245052E-1,-4.4826124E-2,-1.6715537E-3,2.4170518E-1,-2.2882689E-2,-2.4091288E-2,1.6677041E-1,-6.1636355E-2,3.1836293E-4,9.1340713E-4,7.604067E-2,-3.0521478E-3,-3.083486E-2,4.0414397E-2,-6.2129453E-2,3.099529E-1,-2.836948E-2,3.6301E-1,-6.029673E-4,1.2471745E-2,-2.9539596E-2,-4.4876233E-2,-8.5019276E-2,-4.4349454E-2,4.4954345E-2,-2.6799813E-3,1.7223561E-2,-4.7162604E-2,3.919093E-1,-7.816717E-3,4.261577E-2,-4.159262E-2,9.354508E-2,-1.99301E-2,5.1306677E-1,-4.4668663E-2,-1.4374839E-1,-1.0692444E-2,-3.3397004E-2,-5.0111614E-2,-1.2865309E-2,-8.952939E-2,-8.6838305E-3,-1.5519785E-2,-8.371401E-2,1.5978104E-2,5.5090148E-2],"categories":[],"categories_nodes":[],"categories_segments":[],"categories_sizes":[],"default_left":[1,1,1,1,1,1,0,1,1,1,1,1,1,1,1,1,1,0,0,1,0,1,0,1,1,1,1,1,1,1,1,0,0,0,0,0,1,1,1,1,1,0,0,0,0,0,0,0,0,0,0,0,0,0,0,0,0,0,0,0,0,0,0],"id":13,"left_children":[1,3,5,7,9,11,-1,13,15,17,19,21,23,25,27,29,31,-1,-1,33,-1,35,-1,37,39,41,43,45,47,49,51,-1,-1,-1,-1,-1,53,55,57,59,61,-1,-1,-1,-1,-1,-1,-1,-1,-1,-1,-1,-1,-1,-1,-1,-1,-1,-1,-1,-1,-1,-1],"loss_changes":[2.737572E-2,5.0195638E-2,1.0343984E-1,4.0894106E-2,1.7414503E-1,5.98839E-2,0E0,4.9386736E-2,2.8626695E-1,4.0789824E-3,1.4750433E-1,1.0308263E-1,4.8039675E-2,1.1691561E-1,1.19168356E-1,2.5694013E-1,1.6447449E-1,0E0,0E0,1.7657775E-1,0E0,2.3604776E-3,0E0,1.2252584E-2,3.9875746E-2,8.960027E-2,8.357205E-1,3.2932612E-1,2.3403534E-1,1.0084945E0,1.1043969E-1,0E0,0E0,0E0,0E0,0E0,2.9721484E-4,3.7126243E-3,4.7310367E-3,1.0049447E-2,2.0567384E-3,0E0,0E0,0E0,0E0,0E0,0E0,0E0,0E0,0E0,0E0,0E0,0E0,0E0,0E0,0E0,0E0,0E0,0E0,0E0,0E0,0E0,0E0],"parents":[2147483647,0,0,1,1,2,2,3,3,4,4,5,5,7,7,8,8,9,9,10,10,11,11,12,12,13,13,14,14,15,15,16,16,19,19,21,21,23,23,24,24,25,25,26,26,27,27,28,28,29,29,30,30,36,36,37,37,38,38,39,39,40,40],"right_children":[2,4,6,8,10,12,-1,14,16,18,20,22,24,26,28,30,32,-1,-1,34,-1,36,-1,38,40,42,44,46,48,50,52,-1,-1,-1,-1,-1,54,56,58,60,62,-1,-1,-1,-1,-1,-1,-1,-1,-1,-1,-1,-1,-1,-1,-1,-1,-1,-1,-1,-1,-1,-1],"split_conditions":[2.8425314E0,2.5171866E0,5E-1,5E-1,-4.7686338E-1,-8.775889E-1,4.8151784E-2,-4.7686338E-1,1.8664966E0,5E-1,1.9274899E0,7.0353395E-1,5E-1,2.3545141E0,7.2778916E-1,-4.109183E-1,7.0353395E-1,-1.3447838E-2,-5.0146616E-4,5E-1,-6.864807E-3,3.7372303E0,5.0031126E-2,-2.041156E-1,3.4932215E0,5E-1,5E-1,2.3977168E-1,5E-1,5E-1,1.1260388E0,9.2985876E-2,-8.510845E-3,1.08903E-1,-1.8089019E-4,3.7415235E-3,4.4692564E0,5E-1,-4.7686338E-1,-6.5794045E-1,3.8185666E0,-8.039944E-4,5.1670684E-3,-1.4148782E-2,1.1757279E-1,-2.3450153E-3,1.2784732E-2,-1.2477786E-2,2.8063525E-2,-5.9790304E-3,1.5392004E-1,-1.3400599E-2,-4.312452E-2,-3.2077332E-3,-1.0019101E-2,-1.5033484E-2,-3.8595928E-3,-2.6858818E-2,-2.6051493E-3,-4.655936E-3,-2.5114203E-2,4.793431E-3,1.6527046E-2],"split_indices":[1,1,4,4,2,2,0,2,1,5,2,0,9,1,1,1,0,0,0,7,0,1,0,0,1,5,10,1,3,12,2,0,0,0,0,0,1,7,2,0,1,0,0,0,0,0,0,0,0,0,0,0,0,0,0,0,0,0,0,0,0,0,0],"split_type":[0,0,0,0,0,0,0,0,0,0,0,0,0,0,0,0,0,0,0,0,0,0,0,0,0,0,0,0,0,0,0,0,0,0,0,0,0,0,0,0,0,0,0,0,0,0,0,0,0,0,0,0,0,0,0,0,0,0,0,0,0,0,0],"sum_hessian":[3.44E3,3.368E3,7.2E1,3.349E3,1.9E1,7E1,2E0,3.229E3,1.2E2,1.1E1,8E0,1.2E1,5.8E1,1.547E3,1.682E3,1.15E2,5E0,8E0,3E0,5E0,3E0,9E0,3E0,4E1,1.8E1,1.527E3,2E1,1.511E3,1.71E2,3.4E1,8.1E1,3E0,2E0,3E0,2E0,1E0,8E0,2.5E1,1.5E1,9E0,9E0,1.252E3,2.75E2,1.5E1,5E0,1.369E3,1.42E2,1.58E2,1.3E1,3.1E1,3E0,6.8E1,1.3E1,2E0,6E0,2.1E1,4E0,1.4E1,1E0,6E0,3E0,3E0,6E0],"tree_param":{"num_deleted":"0","num_feature":"14","num_nodes":"63","size_leaf_vector":"0"}},{"base_weights":[-1.9330883E-3,-2.4408405E-3,1.2139293E-2,-1.6623295E-3,-2.5593357E-2,4.097381E-2,-9.368449E-2,5.333354E-3,-2.8145837E-3,1.2894145E-2,-1.2160729E-1,1.1119478E-1,-2.1789283E-2,-1.707775E-1,1.3996474E-1,2.196677E-3,6.6969015E-2,-6.2620845E-3,-1.21006735E-4,-4.47204E-2,6.874597E-2,-1.321032E-1,-1.7734082E-2,2.1286176E-1,2.87127E-2,6.20874E-2,-5.5204444E-2,-2.1662034E-1,-7.493569E-2,2.5163543E-1,-6.697125E-3,-6.2227356E-3,3.3999767E-2,-2.4125656E-2,4.8292646E-1,-9.061358E-3,4.489073E-2,-2.239068E-3,3.4697473E-2,-5.8995515E-2,4.3625318E-2,-8.8146225E-2,1.8854222E-1,-1.5319346E-1,-6.022837E-2,5.8240578E-2,3.9537203E-1,3.131797E-1,-9.257408E-2,-4.151857E-2,4.903508E-1,-7.0657596E-2,8.9948446E-2,-3.1488293E-1,-1.15845844E-1,2.2601466E-1,-2.1292159E-1,2.1270456E-2,-2.4521468E-2,-4.084101E-2,8.372902E-2,-1.029264E-1,4.3045378E-1,-6.2240562E-3,-6.0454644E-2,8.727341E-2,-3.8062144E-2,-4.2058984E-3,4.818826E-2,8.144033E-2,-1.4958639E-2,-6.94631E-2,-8.697252E-3,9.627787E-2,-6.770429E-3,-1.0113276E-1,-4.5317695E-2,9.207352E-2,5.174148E-1,-2.1060011E-1,-1.2209138E-1,2.7506775E-1,-8.455648E-2,-1.1931666E-1,-1.4745721E-2,7.823694E-3,-1.2203093E-1,-8.4097944E-2,-2.9990949E-2,2.0587242E-1,-1.7317018E-2],"categories":[],"categories_nodes":[],"categories_segments":[],"categories_sizes":[],"default_left":[1,1,1,1,1,1,1,1,1,1,1,1,1,1,1,1,1,1,1,1,1,1,0,1,1,1,1,1,1,0,0,1,1,1,0,1,1,1,1,1,1,1,1,1,0,1,0,0,1,1,0,1,1,0,0,0,0,0,0,0,0,0,0,0,0,0,0,0,0,0,0,0,0,0,0,0,0,0,0,0,0,0,0,0,0,0,0,0,0,0,0],"id":14,"left_children":[1,3,5,7,9,11,13,15,17,19,21,23,25,27,29,31,33,35,37,39,41,43,-1,45,47,49,51,53,55,-1,-1,57,59,61,-1,63,65,67,69,71,73,75,77,79,-1,81,-1,-1,83,85,-1,87,89,-1,-1,-1,-1,-1,-1,-1,-1,-1,-1,-1,-1,-1,-1,-1,-1,-1,-1,-1,-1,-1,-1,-1,-1,-1,-1,-1,-1,-1,-1,-1,-1,-1,-1,-1,-1,-1,-1],"loss_changes":[2.4616547E-2,5.9834808E-2,3.700039E-1,2.5930502E-2,4.006644E-1,4.2111498E-1,4.9223357E-1,8.781858E-2,2.5638187E-2,2.540688E-1,3.145483E-2,3.7124485E-1,1.463679E-1,7.164067E-2,1.1633004E-1,1.16420865E-1,8.4526414E-1,1.7381072E-1,1.14460334E-1,5.1758356E-2,7.684231E-1,3.321743E-2,0E0,5.413723E-1,9.260466E-1,6.8591833E-1,8.934911E-2,9.225285E-2,3.8033864E-1,0E0,0E0,1.7358474E-1,3.4210122E-1,7.2490776E-1,0E0,1.6716889E-1,2.2481504E-1,1.4530595E-1,2.0779333E-1,1.7296903E-2,1.6572632E-2,5.4283887E-3,6.8205565E-1,1.1782318E-2,0E0,3.948062E-1,0E0,0E0,3.7785858E-2,5.2599333E-2,0E0,1.6061336E-2,5.3303644E-2,0E0,0E0,0E0,0E0,0E0,0E0,0E0,0E0,0E0,0E0,0E0,0E0,0E0,0E0,0E0,0E0,0E0,0E0,0E0,0E0,0E0,0E0,0E0,0E0,0E0,0E0,0E0,0E0,0E0,0E0,0E0,0E0,0E0,0E0,0E0,0E0,0E0,0E0],"parents":[2147483647,0,0,1,1,2,2,3,3,4,4,5,5,6,6,7,7,8,8,9,9,10,10,11,11,12,12,13,13,14,14,15,15,16,16,17,17,18,18,19,19,20,20,21,21,23,23,24,24,25,25,26,26,27,27,28,28,31,31,32,32,33,33,35,35,36,36,37,37,38,38,39,39,40,40,41,41,42,42,43,43,45,45,48,48,49,49,51,51,52,52],"right_children":[2,4,6,8,10,12,14,16,18,20,22,24,26,28,30,32,34,36,38,40,42,44,-1,46,48,50,52,54,56,-1,-1,58,60,62,-1,64,66,68,70,72,74,76,78,80,-1,82,-1,-1,84,86,-1,88,90,-1,-1,-1,-1,-1,-1,-1,-1,-1,-1,-1,-1,-1,-1,-1,-1,-1,-1,-1,-1,-1,-1,-1,-1,-1,-1,-1,-1,-1,-1,-1,-1,-1,-1,-1,-1,-1,-1],"split_conditions":[2.3282156E0,1.9274899E0,5E-1,-8.9893574E-1,5E-1,5E-1,3.2110792E-1,1.5267644E0,-2.4824579E-1,-2.041156E-1,1.6224878E0,-2.041156E-1,-7.362633E-1,7.0353395E-1,1.4598154E0,5E-1,5E-1,5E-1,1.5267644E0,5E-1,-5.7359076E-1,7.0353395E-1,-5.320225E-3,5E-1,-7.362633E-1,5E-1,1.5411516E0,-7.362633E-1,-8.9893574E-1,7.549063E-2,-2.0091375E-3,-2.041156E-1,-2.041156E-1,7.0353395E-1,1.4487794E-1,1.5267644E0,5E-1,5E-1,6.464529E-1,5E-1,-1.1117651E0,5E-1,5E-1,-6.54927E-1,-1.8068511E-2,-1.1117651E0,1.1861161E-1,9.3953915E-2,5E-1,-8.9893574E-1,1.4710525E-1,7.0353395E-1,-2.0411563E-1,-9.446488E-2,-3.4753755E-2,6.78044E-2,-6.387648E-2,6.381137E-3,-7.3564406E-3,-1.2252304E-2,2.5118707E-2,-3.0877922E-2,1.2913615E-1,-1.8672169E-3,-1.8136393E-2,2.6182024E-2,-1.1418643E-2,-1.2617696E-3,1.4456479E-2,2.44321E-2,-4.487592E-3,-2.083893E-2,-2.6091756E-3,2.8883362E-2,-2.0311289E-3,-3.0339828E-2,-1.3595309E-2,2.7622057E-2,1.5522444E-1,-6.318004E-2,-3.6627416E-2,8.252033E-2,-2.5366945E-2,-3.5795E-2,-4.4237166E-3,2.3471082E-3,-3.660928E-2,-2.5229385E-2,-8.997285E-3,6.1761726E-2,-5.1951054E-3],"split_indices":[2,2,9,1,5,12,1,2,1,0,1,0,1,0,1,10,9,8,2,7,1,0,0,5,1,3,1,1,1,0,0,0,0,0,0,2,12,11,1,6,0,3,9,1,0,0,0,0,7,1,0,0,0,0,0,0,0,0,0,0,0,0,0,0,0,0,0,0,0,0,0,0,0,0,0,0,0,0,0,0,0,0,0,0,0,0,0,0,0,0,0],"split_type":[0,0,0,0,0,0,0,0,0,0,0,0,0,0,0,0,0,0,0,0,0,0,0,0,0,0,0,0,0,0,0,0,0,0,0,0,0,0,0,0,0,0,0,0,0,0,0,0,0,0,0,0,0,0,0,0,0,0,0,0,0,0,0,0,0,0,0,0,0,0,0,0,0,0,0,0,0,0,0,0,0,0,0,0,0,0,0,0,0,0,0],"sum_hessian":[3.44E3,3.321E3,1.19E2,3.214E3,1.07E2,9.4E1,2.5E1,4.54E2,2.76E3,7.7E1,3E1,4.4E1,5E1,1.9E1,6E0,4.33E2,2.1E1,1.21E3,1.55E3,3.8E1,3.9E1,2.7E1,3E0,1.9E1,2.5E1,1.4E1,3.6E1,1.2E1,7E0,3E0,3E0,3.43E2,9E1,1.8E1,3E0,1.148E3,6.2E1,1.462E3,8.8E1,3.3E1,5E0,1.7E1,2.2E1,2E1,7E0,1.1E1,8E0,7E0,1.8E1,1.2E1,2E0,3.3E1,3E0,5E0,7E0,2E0,5E0,1.37E2,2.06E2,3.6E1,5.4E1,1.6E1,2E0,1.089E3,5.9E1,4.1E1,2.1E1,1.408E3,5.4E1,4.5E1,4.3E1,2.7E1,6E0,2E0,3E0,1.2E1,5E0,1.8E1,4E0,5E0,1.5E1,4E0,7E0,1.3E1,5E0,8E0,4E0,2.4E1,9E0,1E0,2E0],"tree_param":{"num_deleted":"0","num_feature":"14","num_nodes":"91","size_leaf_vector":"0"}},{"base_weights":[-1.1744571E-3,-1.6176646E-3,1.1104791E-2,-3.5576615E-3,6.3626883E-3,3.252044E-2,-6.7571804E-2,-1.2119664E-2,1.4941006E-3,2.9629882E-2,-1.0352455E-2,8.293636E-2,-1.2601849E-2,-1.2580878E-1,1.0847266E-1,9.823468E-4,-2.6097188E-2,-2.2121535E-3,2.5381349E-2,4.5584667E-2,-1.9867368E-2,-1.529431E-2,2.2073783E-1,1.5779148E-1,2.2165632E-2,-5.5825934E-2,3.458424E-2,-1.6157413E-1,-5.1963992E-2,1.9501743E-1,-5.1902714E-3,-7.614529E-3,3.0144546E-2,-2.8534483E-2,8.041426E-2,-4.981594E-3,3.1090343E-2,1.40944915E-2,1.9528987E-1,2.9765056E-2,1.4508916E-1,1.04201615E-1,-4.8831537E-2,-8.03662E-2,-3.018717E-3,-5.0068416E-2,3.9323527E-1,4.553119E-2,2.899395E-1,2.3097004E-1,-6.691863E-2,-7.143398E-2,1.7499155E-1,-1.3575478E-2,3.9228067E-1,-3.1289518E-1,-1.0561619E-1,1.8081172E-1,-1.5969118E-1,-1.4929522E-2,5.6265153E-2,2.536471E-1,4.5579905E-3,-1.2552003E-2,-4.354049E-2,-4.7703315E-2,4.379622E-1,-2.6327495E-3,-6.984365E-2,1.660253E-2,2.842746E-1,-2.135117E-3,5.9633486E-2,-3.758775E-2,3.7464654E-1,6.219508E-2,-2.2161586E-4,-9.911886E-2,4.7895977E-1,-4.944485E-2,2.0641126E-1,-1.1720675E-1,-1.7774867E-2,1.3621917E-1,-1.0294298E-1,2.2623338E-2,-2.4872124E-2,2.0905152E-1,-6.2360406E-2,1.6256191E-1,4.08521E-1,-4.107871E-2,-1.5354864E-1,-9.011944E-2,-5.4123096E-2,1.6538079E-1,-3.849421E-2],"categories":[],"categories_nodes":[],"categories_segments":[],"categories_sizes":[],"default_left":[1,1,1,1,1,1,1,1,1,1,1,1,1,1,1,1,1,1,1,1,1,1,1,1,1,1,1,1,1,0,0,1,1,1,1,1,1,1,1,1,1,1,1,1,1,0,0,1,1,0,1,1,0,1,0,0,0,0,0,0,0,0,0,0,0,0,0,0,0,0,0,0,0,0,0,0,0,0,0,0,0,0,0,0,0,0,0,0,0,0,0,0,0,0,0,0,0],"id":15,"left_children":[1,3,5,7,9,11,13,15,17,19,21,23,25,27,29,31,33,35,37,39,41,43,45,47,49,51,53,55,57,-1,-1,59,61,63,65,67,69,71,73,75,77,79,81,83,85,-1,-1,87,89,-1,91,93,-1,95,-1,-1,-1,-1,-1,-1,-1,-1,-1,-1,-1,-1,-1,-1,-1,-1,-1,-1,-1,-1,-1,-1,-1,-1,-1,-1,-1,-1,-1,-1,-1,-1,-1,-1,-1,-1,-1,-1,-1,-1,-1,-1,-1],"loss_changes":[1.8744761E-2,5.1453374E-2,2.0438671E-1,1.15633905E-1,2.5310117E-1,2.1715891E-1,2.8020653E-1,1.8169424E-1,1.4896733E-1,2.1570893E-1,4.3619952E-1,2.0120746E-1,1.05949044E-1,4.4425666E-2,6.987072E-2,1.288406E-1,1.2690249E-1,1.3453296E-1,4.3065524E-1,3.199506E-1,2.4585655E-1,2.9690957E-1,3.9339572E-1,2.8349817E-1,4.99087E-1,1.0977077E-1,4.3598935E-1,7.703218E-2,2.2948425E-1,0E0,0E0,1.8634996E-1,6.679271E-1,1.1217508E-1,5.247822E-1,2.0488043E-1,4.0610597E-1,1.5755138E-1,5.988363E-1,1.7408565E-1,2.3304224E0,2.1435994E-1,1.1470953E-1,3.02521E-1,1.7651771E-1,0E0,0E0,2.2474617E-1,6.953168E-2,0E0,3.6224157E-2,3.5324693E-3,0E0,1.0893156E-1,0E0,0E0,0E0,0E0,0E0,0E0,0E0,0E0,0E0,0E0,0E0,0E0,0E0,0E0,0E0,0E0,0E0,0E0,0E0,0E0,0E0,0E0,0E0,0E0,0E0,0E0,0E0,0E0,0E0,0E0,0E0,0E0,0E0,0E0,0E0,0E0,0E0,0E0,0E0,0E0,0E0,0E0,0E0],"parents":[2147483647,0,0,1,1,2,2,3,3,4,4,5,5,6,6,7,7,8,8,9,9,10,10,11,11,12,12,13,13,14,14,15,15,16,16,17,17,18,18,19,19,20,20,21,21,22,22,23,23,24,24,25,25,26,26,27,27,28,28,31,31,32,32,33,33,34,34,35,35,36,36,37,37,38,38,39,39,40,40,41,41,42,42,43,43,44,44,47,47,48,48,50,50,51,51,53,53],"right_children":[2,4,6,8,10,12,14,16,18,20,22,24,26,28,30,32,34,36,38,40,42,44,46,48,50,52,54,56,58,-1,-1,60,62,64,66,68,70,72,74,76,78,80,82,84,86,-1,-1,88,90,-1,92,94,-1,96,-1,-1,-1,-1,-1,-1,-1,-1,-1,-1,-1,-1,-1,-1,-1,-1,-1,-1,-1,-1,-1,-1,-1,-1,-1,-1,-1,-1,-1,-1,-1,-1,-1,-1,-1,-1,-1,-1,-1,-1,-1,-1,-1],"split_conditions":[2.3282156E0,5E-1,5E-1,-2.041156E-1,-2.041156E-1,5E-1,3.2110792E-1,-1.1117651E0,8.904617E-1,4.0244418E-1,1.9274899E0,-2.041156E-1,-2.041156E-1,7.0353395E-1,1.4598154E0,5E-1,5E-1,5E-1,5E-1,7.709919E-2,-8.775889E-1,-8.775889E-1,-7.362633E-1,5E-1,-7.362633E-1,1.5411516E0,5E-1,-8.9893574E-1,-8.9893574E-1,5.850523E-2,-1.5570815E-3,1.5267644E0,-8.775889E-1,-4.7686338E-1,-7.613787E-2,5.6511664E-1,5.6511664E-1,5E-1,7.0353395E-1,-5.7359076E-1,5E-1,-1.1117651E0,5.6511664E-1,-7.362633E-1,-4.7686338E-1,-1.5020525E-2,1.17970586E-1,-1.1117651E0,-8.55733E-2,6.929102E-2,5E-1,5E-1,5.2497465E-2,-8.9893574E-1,1.1768421E-1,-9.386856E-2,-3.1684857E-2,5.4243516E-2,-4.7907356E-2,-4.478857E-3,1.6879547E-2,7.609413E-2,1.3673971E-3,-3.7656012E-3,-1.3062147E-2,-1.4310995E-2,1.3138866E-1,-7.898249E-4,-2.0953096E-2,4.9807588E-3,8.5282385E-2,-6.4053515E-4,1.7890047E-2,-1.1276325E-2,1.1239397E-1,1.8658524E-2,-6.648476E-5,-2.9735658E-2,1.4368793E-1,-1.4833456E-2,6.192338E-2,-3.5162028E-2,-5.33246E-3,4.0865753E-2,-3.0882895E-2,6.7870016E-3,-7.4616377E-3,6.2715456E-2,-1.8708123E-2,4.8768576E-2,1.2255631E-1,-1.2323613E-2,-4.6064593E-2,-2.7035832E-2,-1.623693E-2,4.961424E-2,-1.1548264E-2],"split_indices":[2,9,9,0,0,12,1,0,1,1,2,0,0,0,1,5,4,8,3,1,2,2,1,5,1,1,3,1,1,0,0,2,2,2,2,1,1,10,0,1,12,0,1,1,2,0,0,0,1,0,11,10,0,1,0,0,0,0,0,0,0,0,0,0,0,0,0,0,0,0,0,0,0,0,0,0,0,0,0,0,0,0,0,0,0,0,0,0,0,0,0,0,0,0,0,0,0],"split_type":[0,0,0,0,0,0,0,0,0,0,0,0,0,0,0,0,0,0,0,0,0,0,0,0,0,0,0,0,0,0,0,0,0,0,0,0,0,0,0,0,0,0,0,0,0,0,0,0,0,0,0,0,0,0,0,0,0,0,0,0,0,0,0,0,0,0,0,0,0,0,0,0,0,0,0,0,0,0,0,0,0,0,0,0,0,0,0,0,0,0,0,0,0,0,0,0,0],"sum_hessian":[3.44E3,3.321E3,1.19E2,2.672E3,6.49E2,9.4E1,2.5E1,9.91E2,1.681E3,2.71E2,3.78E2,4.4E1,5E1,1.9E1,6E0,5.12E2,4.79E2,1.456E3,2.25E2,2.05E2,6.6E1,3.71E2,7E0,1.9E1,2.5E1,2.6E1,2.4E1,1.2E1,7E0,3E0,3E0,3.96E2,1.16E2,4.69E2,1E1,1.345E3,1.11E2,2.12E2,1.3E1,1.78E2,2.7E1,1.2E1,5.4E1,5.8E1,3.13E2,3E0,4E0,1.1E1,8E0,7E0,1.8E1,2.5E1,1E0,2.2E1,2E0,2E0,1E1,2E0,5E0,3.56E2,4E1,1.1E1,1.05E2,2.28E2,2.41E2,8E0,2E0,1.299E3,4.6E1,1.06E2,5E0,1.57E2,5.5E1,6E0,7E0,8.5E1,9.3E1,1.6E1,1.1E1,5E0,7E0,1.6E1,3.8E1,5E0,5.3E1,1.44E2,1.69E2,4E0,7E0,5E0,3E0,1.5E1,3E0,1E1,1.5E1,2E0,2E1],"tree_param":{"num_deleted":"0","num_feature":"14","num_nodes":"97","size_leaf_vector":"0"}},{"base_weights":[-5.439054E-4,1.2752683E-4,-7.951235E-3,-4.4394715E-4,3.7139717E-2,2.367666E-3,-2.2662617E-2,-2.0233828E-3,5.887227E-3,-1.6982617E-2,1.464458E-1,-5.4645757E-3,7.271857E-2,-4.1071065E-2,4.0976657E-3,-3.1344364E-3,2.8326327E-2,1.4810944E-1,4.0245806E-3,-2.5774704E-2,9.326806E-3,3.9112684E-1,-8.732023E-2,-2.7965477E-2,1.14731975E-2,3.2520983E-2,3.5793996E-1,-4.7074564E-2,6.975533E-2,-4.004961E-3,1.2967293E-1,-2.0171432E-3,-3.3566803E-2,7.455242E-2,-1.1748591E-2,-1.978056E-1,2.9638204E-1,-7.0373933E-3,2.2652954E-2,-1.03328726E-4,-3.5752278E-2,5.384363E-1,-3.3867612E-2,-3.6108978E-2,-9.679359E-2,-1.45986965E-2,-7.243928E-2,-2.3592375E-3,1.0851472E-1,2.4164021E-1,-3.432501E-2,-3.5515305E-2,-1.0941081E-1,1.4874282E-1,-6.1547705E-3,-1.9284986E-2,6.265348E-2,-1.4339614E-3,-4.9661867E-2,-4.669061E-2,1.1933997E-1,3.588768E-2,2.5722575E-1,-5.166812E-2,3.3888638E-2,5.1876426E-1,-9.8921545E-2,-1.1793085E-2,2.191432E-1,-5.9786588E-2,5.5691715E-2,8.942202E-3,-1.8159946E-2,-3.9026413E-2,-6.3727926E-3,-1.05158845E-2,-2.886046E-2,-8.378032E-2,-2.0306373E-2,-3.8953755E-2,2.1323873E-2,5.1357046E-2,3.4004575E-1,-7.052749E-2,6.7810393E-3,-8.340502E-3,-8.299755E-2,-7.241853E-2,-1.7158662E-1,-2.5126541E-2,3.8110256E-2,1.873184E-2,1.4425282E-1],"categories":[],"categories_nodes":[],"categories_segments":[],"categories_sizes":[],"default_left":[1,1,1,1,1,1,1,1,1,1,1,1,1,1,1,1,1,1,1,1,0,1,1,1,1,1,0,1,1,1,0,1,1,1,1,0,1,1,1,1,1,0,0,0,0,1,1,1,1,0,1,1,1,0,0,1,1,0,0,0,0,0,0,0,0,0,0,0,0,0,0,0,0,0,0,0,0,0,0,0,0,0,0,0,0,0,0,0,0,0,0,0,0],"id":16,"left_children":[1,3,5,7,9,11,13,15,17,19,21,23,25,27,29,31,33,35,37,39,-1,41,43,45,47,49,-1,51,53,55,-1,57,59,61,63,-1,65,67,69,71,73,-1,-1,-1,-1,75,77,79,81,-1,83,85,87,-1,-1,89,91,-1,-1,-1,-1,-1,-1,-1,-1,-1,-1,-1,-1,-1,-1,-1,-1,-1,-1,-1,-1,-1,-1,-1,-1,-1,-1,-1,-1,-1,-1,-1,-1,-1,-1,-1,-1],"loss_changes":[1.7114896E-2,6.677063E-2,4.346997E-2,3.1100921E-2,2.8645027E-1,9.3517266E-2,5.8296893E-2,8.401826E-2,1.6391283E-1,7.873782E-3,9.493232E-1,5.8631472E-2,1.8326803E-1,4.9857937E-2,5.0376315E-2,8.16048E-2,1.6389649E-1,4.6894383E-1,1.266843E-1,6.3997563E-3,0E0,5.190811E-1,8.7117404E-4,3.817761E-2,1.1838022E-1,2.3195481E-1,0E0,4.439181E-2,2.4899274E-2,4.9079783E-2,0E0,6.433566E-2,1.7614317E-1,2.8035247E-1,8.919816E-2,0E0,5.787677E-1,4.1778347E-1,6.2705696E-1,1.4690434E-3,1.4827568E-3,0E0,0E0,0E0,0E0,2.7243672E-3,7.1673393E-3,6.8431064E-2,1.2810779E-1,0E0,1.9824078E-2,7.414636E-2,1.0574199E-2,0E0,0E0,1.40334E-2,2.955367E-2,0E0,0E0,0E0,0E0,0E0,0E0,0E0,0E0,0E0,0E0,0E0,0E0,0E0,0E0,0E0,0E0,0E0,0E0,0E0,0E0,0E0,0E0,0E0,0E0,0E0,0E0,0E0,0E0,0E0,0E0,0E0,0E0,0E0,0E0,0E0,0E0],"parents":[2147483647,0,0,1,1,2,2,3,3,4,4,5,5,6,6,7,7,8,8,9,9,10,10,11,11,12,12,13,13,14,14,15,15,16,16,17,17,18,18,19,19,21,21,22,22,23,23,24,24,25,25,27,27,28,28,29,29,31,31,32,32,33,33,34,34,36,36,37,37,38,38,39,39,40,40,45,45,46,46,47,47,48,48,50,50,51,51,52,52,55,55,56,56],"right_children":[2,4,6,8,10,12,14,16,18,20,22,24,26,28,30,32,34,36,38,40,-1,42,44,46,48,50,-1,52,54,56,-1,58,60,62,64,-1,66,68,70,72,74,-1,-1,-1,-1,76,78,80,82,-1,84,86,88,-1,-1,90,92,-1,-1,-1,-1,-1,-1,-1,-1,-1,-1,-1,-1,-1,-1,-1,-1,-1,-1,-1,-1,-1,-1,-1,-1,-1,-1,-1,-1,-1,-1,-1,-1,-1,-1,-1,-1],"split_conditions":[1.703824E0,1.3784791E0,5E-1,5E-1,5E-1,1.1260388E0,2.5171866E0,2.3282156E0,-1.0616082E0,5E-1,5E-1,2.1918416E0,7.0353395E-1,2.3282156E0,5E-1,1.9274899E0,5E-1,-4.7686338E-1,5E-1,-2.041156E-1,2.798042E-3,-4.7686338E-1,-6.5794045E-1,5E-1,5E-1,1.5267644E0,1.0738199E-1,5E-1,-2.0411563E-1,1.3264015E0,3.890188E-2,1.2158066E0,5E-1,-8.55733E-2,-2.041156E-1,-5.934168E-2,3.2458767E-1,1.2158066E0,-5.7359076E-1,2.3282156E0,3.245877E-1,1.615309E-1,-1.0160284E-2,-1.0832693E-2,-2.903808E-2,7.0353395E-1,7.0353395E-1,-2.041156E-1,-4.7686338E-1,7.249206E-2,2.3545141E0,7.253132E-1,7.0353395E-1,4.462285E-2,-1.8464312E-3,5.03861E0,-2.041156E-1,-4.3018846E-4,-1.4898561E-2,-1.4007184E-2,3.580199E-2,1.0766305E-2,7.716773E-2,-1.5500437E-2,1.0166592E-2,1.5562928E-1,-2.9676465E-2,-3.5379257E-3,6.574296E-2,-1.7935976E-2,1.6707515E-2,2.6826607E-3,-5.447984E-3,-1.1707924E-2,-1.9118378E-3,-3.1547656E-3,-8.658138E-3,-2.5134096E-2,-6.0919123E-3,-1.1686127E-2,6.397162E-3,1.5407114E-2,1.0201373E-1,-2.1158246E-2,2.0343119E-3,-2.5021508E-3,-2.4899267E-2,-2.1725561E-2,-5.1475987E-2,-7.5379624E-3,1.1433077E-2,5.619552E-3,4.3275848E-2],"split_indices":[1,1,12,9,10,2,1,2,1,7,12,1,0,2,4,2,12,2,12,0,0,2,0,10,5,2,0,10,0,2,0,1,11,1,0,0,2,1,1,2,2,0,0,0,0,0,0,0,2,0,1,2,0,0,0,1,0,0,0,0,0,0,0,0,0,0,0,0,0,0,0,0,0,0,0,0,0,0,0,0,0,0,0,0,0,0,0,0,0,0,0,0,0],"split_type":[0,0,0,0,0,0,0,0,0,0,0,0,0,0,0,0,0,0,0,0,0,0,0,0,0,0,0,0,0,0,0,0,0,0,0,0,0,0,0,0,0,0,0,0,0,0,0,0,0,0,0,0,0,0,0,0,0,0,0,0,0,0,0,0,0,0,0,0,0,0,0,0,0,0,0,0,0,0,0,0,0,0,0,0,0,0,0,0,0,0,0,0,0],"sum_hessian":[3.44E3,3.155E3,2.85E2,3.108E3,4.7E1,1.68E2,1.17E2,2.488E3,6.2E2,3.2E1,1.5E1,1.52E2,1.6E1,6.9E1,4.8E1,2.401E3,8.7E1,7E0,6.13E2,2.4E1,8E0,7E0,8E0,6.5E1,8.7E1,1.5E1,1E0,6.6E1,3E0,4.6E1,2E0,2.317E3,8.4E1,4E1,4.7E1,2E0,5E0,3.85E2,2.28E2,7E0,1.7E1,5E0,2E0,2E0,6E0,5.1E1,1.4E1,7.7E1,1E1,3E0,1.2E1,5.7E1,9E0,1E0,2E0,3.8E1,8E0,2.29E3,2.7E1,7.8E1,6E0,3.4E1,6E0,2.5E1,2.2E1,3E0,2E0,3.78E2,7E0,6.5E1,1.63E2,5E0,2E0,1.5E1,2E0,4.1E1,1E1,1.1E1,3E0,3E1,4.7E1,9E0,1E0,6E0,6E0,3.7E1,2E1,7E0,2E0,3.5E1,3E0,6E0,2E0],"tree_param":{"num_deleted":"0","num_feature":"14","num_nodes":"93","size_leaf_vector":"0"}},{"base_weights":[-2.1268032E-4,1.1327747E-3,-3.2113562E-3,7.677248E-3,-2.033954E-3,-8.618816E-2,-1.2989357E-3,2.6372286E-2,9.073273E-4,-2.9299067E-2,1.6337073E-3,-1.283163E-1,6.1582286E-2,-2.43385E-2,2.388838E-3,-2.7619018E-3,6.625424E-2,1.7467745E-2,-2.4750585E-2,-9.7682495E-3,-1.0716528E-1,-3.8585772E-3,1.6467225E-2,1.0426899E-1,-1.6181274E-1,2.3517549E-1,-2.0171452E-2,-7.35889E-2,-4.0195193E-3,1.7989172E-2,-6.3752816E-3,2.3282155E-2,-8.167014E-2,1.5002957E-1,-3.1396855E-2,1.9617234E-3,1.05396874E-1,1.0639646E-3,-9.073799E-2,1.2096373E-1,-2.4854796E-2,-1.2693189E-1,-2.936933E-2,1.8803353E-3,-4.136374E-2,6.2696114E-3,6.104734E-2,-1.9795485E-1,-6.2559746E-2,-7.8824036E-2,2.0742627E-2,3.9245687E-2,-2.886889E-2,7.321965E-4,1.0621385E-1,-2.3092687E-2,1.0480353E-2,1.9142143E-1,6.9917217E-3,-1.2248178E-1,1.0199003E-1,9.1453284E-2,2.0717643E-1,2.8225755E-2,-1.3662443E-1,-7.377147E-3,1.906002E-1,-1.599032E-1,1.8898448E-1,3.421284E-2,-2.0376356E-2,-1.3515988E-1,1.9247431E-2,2.61312E-1,-5.2048545E-2,-7.9172015E-2,2.2790425E-3,-3.427665E-2,-8.129141E-3,1.2531929E-2,-7.6291678E-3,-5.931007E-2,8.88051E-2,2.522067E-2,-8.517688E-3,2.2184652E-1,-2.578302E-2,-2.2258177E-1,-9.3055524E-2,-2.4682444E-2,-9.220957E-2,-8.4519126E-2,1.9588443E-2,-1.4585356E-2,3.287755E-1,-3.8235717E-2,1.2587589E-1,2.0968577E-2,-2.6663011E-2,-5.384831E-2,2.5104967E-1,-2.8856343E-2,5.61595E-2,1.9447863E-2,-3.476236E-2],"categories":[],"categories_nodes":[],"categories_segments":[],"categories_sizes":[],"default_left":[1,1,1,1,1,1,1,1,1,1,1,1,1,1,1,1,1,1,1,1,1,1,1,0,1,0,0,1,1,1,1,1,1,1,1,1,1,1,1,1,1,0,1,1,1,1,1,1,1,1,0,1,1,1,1,1,1,0,0,0,0,0,0,0,0,0,0,0,0,0,0,0,0,0,0,0,0,0,0,0,0,0,0,0,0,0,0,0,0,0,0,0,0,0,0,0,0,0,0,0,0,0,0,0,0],"id":17,"left_children":[1,3,5,7,9,11,13,15,17,19,21,23,25,27,29,31,33,35,37,39,41,43,45,-1,47,-1,-1,49,51,53,55,57,59,61,63,65,67,69,71,73,75,-1,77,79,81,83,85,87,89,91,-1,93,95,97,99,101,103,-1,-1,-1,-1,-1,-1,-1,-1,-1,-1,-1,-1,-1,-1,-1,-1,-1,-1,-1,-1,-1,-1,-1,-1,-1,-1,-1,-1,-1,-1,-1,-1,-1,-1,-1,-1,-1,-1,-1,-1,-1,-1,-1,-1,-1,-1,-1,-1],"loss_changes":[1.3886641E-2,4.92572E-2,1.6904792E-1,9.806312E-2,1.6024658E-1,1.5730907E-1,8.867633E-2,2.3954023E-1,2.4262862E-1,2.8790343E-1,1.1518051E-1,1.6489688E-1,8.9895196E-2,1.4380758E-1,1.2316556E-1,2.4851234E-1,7.164359E-1,4.7290382E-1,3.81666E-1,3.0476752E-1,5.470708E-2,2.2220427E-1,1.7327859E-1,0E0,4.8598588E-2,0E0,0E0,2.2376254E-2,1.1186963E-1,4.932093E-1,1.628305E-1,2.4791625E-1,2.3735608E-1,1.3838327E-1,2.6108795E-1,5.228606E-1,1.1833607E0,1.1583418E-1,3.1040442E-1,4.021125E-1,2.0356962E-1,0E0,6.5945135E-4,9.085267E-2,3.2530642E-1,8.764814E-2,9.970397E-1,1.0287732E-2,4.4623744E-3,2.4074316E-2,0E0,5.9705156E-1,1.00477844E-1,1.5135041E-1,1.2422035E0,1.3408747E-1,1.1752182E-1,0E0,0E0,0E0,0E0,0E0,0E0,0E0,0E0,0E0,0E0,0E0,0E0,0E0,0E0,0E0,0E0,0E0,0E0,0E0,0E0,0E0,0E0,0E0,0E0,0E0,0E0,0E0,0E0,0E0,0E0,0E0,0E0,0E0,0E0,0E0,0E0,0E0,0E0,0E0,0E0,0E0,0E0,0E0,0E0,0E0,0E0,0E0,0E0],"parents":[2147483647,0,0,1,1,2,2,3,3,4,4,5,5,6,6,7,7,8,8,9,9,10,10,11,11,12,12,13,13,14,14,15,15,16,16,17,17,18,18,19,19,20,20,21,21,22,22,24,24,27,27,28,28,29,29,30,30,31,31,32,32,33,33,34,34,35,35,36,36,37,37,38,38,39,39,40,40,42,42,43,43,44,44,45,45,46,46,47,47,48,48,49,49,51,51,52,52,53,53,54,54,55,55,56,56],"right_children":[2,4,6,8,10,12,14,16,18,20,22,24,26,28,30,32,34,36,38,40,42,44,46,-1,48,-1,-1,50,52,54,56,58,60,62,64,66,68,70,72,74,76,-1,78,80,82,84,86,88,90,92,-1,94,96,98,100,102,104,-1,-1,-1,-1,-1,-1,-1,-1,-1,-1,-1,-1,-1,-1,-1,-1,-1,-1,-1,-1,-1,-1,-1,-1,-1,-1,-1,-1,-1,-1,-1,-1,-1,-1,-1,-1,-1,-1,-1,-1,-1,-1,-1,-1,-1,-1,-1,-1],"split_conditions":[7.0353395E-1,-5.7359076E-1,-1.0616082E0,-1.1117651E0,-4.109183E-1,5E-1,-8.775889E-1,3.2458767E-1,3.2458767E-1,5E-1,3.2458767E-1,-8.775889E-1,-2.7650064E-1,-4.109183E-1,-4.109183E-1,-7.613785E-2,5E-1,-7.613785E-2,-7.362633E-1,-8.775889E-1,1.3264015E0,-7.613785E-2,5E-1,3.12807E-2,-2.7650064E-1,7.055265E-2,-6.051436E-3,5E-1,2.3977168E-1,-5.7359076E-1,2.3977168E-1,-1.0616082E0,5E-1,-7.362633E-1,-7.362633E-1,5E-1,-2.041156E-1,-2.041156E-1,5E-1,5E-1,-7.613785E-2,-3.8079567E-2,-1.1117651E0,2.3977168E-1,5E-1,7.709919E-2,7.253132E-1,5E-1,1.1260388E0,5E-1,6.2227882E-3,5E-1,3.4932215E0,5E-1,5E-1,1.9274899E0,1.8664966E0,5.7426434E-2,2.0975166E-3,-3.6744535E-2,3.059701E-2,2.7435986E-2,6.2152933E-2,8.467727E-3,-4.0987328E-2,-2.2131442E-3,5.7180062E-2,-4.797096E-2,5.6695346E-2,1.0263852E-2,-6.112907E-3,-4.0547967E-2,5.7742298E-3,7.839361E-2,-1.56145645E-2,-2.3751605E-2,6.837128E-4,-1.0282995E-2,-2.4387424E-3,3.7595788E-3,-2.2887504E-3,-1.7793022E-2,2.664153E-2,7.566201E-3,-2.5553065E-3,6.655396E-2,-7.734906E-3,-6.677453E-2,-2.7916659E-2,-7.4047334E-3,-2.7662871E-2,-2.535574E-2,5.876533E-3,-4.3756072E-3,9.8632656E-2,-1.14707155E-2,3.776277E-2,6.290573E-3,-7.998903E-3,-1.6154494E-2,7.53149E-2,-8.656903E-3,1.684785E-2,5.834359E-3,-1.0428708E-2],"split_indices":[0,1,1,0,1,8,2,2,2,10,2,2,2,1,1,2,12,2,1,2,2,2,10,0,2,0,0,4,1,1,1,1,9,1,1,3,0,0,5,6,2,0,0,1,11,1,2,7,2,3,0,5,1,12,12,2,1,0,0,0,0,0,0,0,0,0,0,0,0,0,0,0,0,0,0,0,0,0,0,0,0,0,0,0,0,0,0,0,0,0,0,0,0,0,0,0,0,0,0,0,0,0,0,0,0],"split_type":[0,0,0,0,0,0,0,0,0,0,0,0,0,0,0,0,0,0,0,0,0,0,0,0,0,0,0,0,0,0,0,0,0,0,0,0,0,0,0,0,0,0,0,0,0,0,0,0,0,0,0,0,0,0,0,0,0,0,0,0,0,0,0,0,0,0,0,0,0,0,0,0,0,0,0,0,0,0,0,0,0,0,0,0,0,0,0,0,0,0,0,0,0,0,0,0,0,0,0,0,0,0,0,0,0],"sum_hessian":[3.44E3,2.375E3,1.065E3,7.74E2,1.601E3,2.3E1,1.042E3,2.05E2,5.69E2,1.89E2,1.412E3,1.8E1,5E0,1.43E2,8.99E2,1.19E2,8.6E1,3.46E2,2.23E2,1.52E2,3.7E1,1.031E3,3.81E2,2E0,1.6E1,1E0,4E0,4.1E1,1.02E2,3.23E2,5.76E2,9E1,2.9E1,4.6E1,4E1,2.95E2,5.1E1,1.61E2,6.2E1,1.5E1,1.37E2,2.9E1,8E0,8.95E2,1.36E2,3.11E2,7E1,1.1E1,5E0,3.9E1,2E0,3.7E1,6.5E1,2.71E2,5.2E1,2.89E2,2.87E2,7E0,8.3E1,2.4E1,5E0,2.4E1,2.2E1,2.6E1,1.4E1,2.82E2,1.3E1,1.2E1,3.9E1,6.3E1,9.8E1,4.4E1,1.8E1,8E0,7E0,4.5E1,9.2E1,6E0,2E0,4.22E2,4.73E2,1.2E2,1.6E1,1.36E2,1.75E2,2.4E1,4.6E1,8E0,3E0,3E0,2E0,3.7E1,2E0,3.2E1,5E0,6.2E1,3E0,1.56E2,1.15E2,2.5E1,2.7E1,2.7E2,1.9E1,2.4E2,4.7E1],"tree_param":{"num_deleted":"0","num_feature":"14","num_nodes":"105","size_leaf_vector":"0"}},{"base_weights":[-4.9794988E-5,2.2762078E-4,-1.2852041E-2,-1.9477865E-4,2.3526195E-2,6.2409863E-3,-5.462997E-2,1.8773116E-4,-1.0277519E-2,-1.266036E-2,1.858718E-1,-2.812691E-4,1.1069083E-1,-5.639348E-4,-6.271168E-2,6.155676E-4,-1.07628815E-2,-3.671807E-2,3.5193592E-2,-3.2020014E-2,3.464683E-2,5.457213E-1,-1.7286915E-2,5.5643704E-2,-9.378794E-3,-6.945064E-2,-4.0274937E-2,1.267309E-4,2.1268856E-2,2.4593392E-2,-1.9858131E-2,-6.511356E-2,-1.1504843E-2,1.6946708E-1,-3.759205E-2,-4.105372E-2,1.1270165E-2,1.2767804E-1,7.4919494E-4,-8.332865E-2,1.2055886E-1,-1.77335E-4,9.755382E-2,-2.4473235E-2,1.0975933E-2,-2.1245282E-2,-4.9235858E-2,7.8223896E-4,-1.1001965E-2,4.9966876E-4,7.808454E-2,-7.0478003E-3,1.9247161E-1,-2.3366282E-2,6.667092E-2,-1.1932588E-1,-3.9673205E-2,1.2524654E-2,-1.7527215E-2,2.7982113E-1,-1.2391163E-2,-1.3589749E-1,1.01414874E-1,-5.058843E-2,5.516519E-3,2.9018328E-1,-2.3218146E-2,1.7673152E-2,-4.4029118E-3,-2.7255362E-2,-1.3031681E-1,1.6465493E-2,-1.1213441E-2,-8.994317E-3,-5.099194E-2,-1.4198183E-2,3.5052456E-2],"categories":[],"categories_nodes":[],"categories_segments":[],"categories_sizes":[],"default_left":[1,1,1,1,1,1,1,1,1,1,1,1,0,0,1,1,1,1,1,1,1,0,1,1,1,0,1,1,1,1,1,1,1,1,1,1,0,1,1,1,0,1,0,1,1,0,0,0,0,0,0,0,0,0,0,0,0,0,0,0,0,0,0,0,0,0,0,0,0,0,0,0,0,0,0,0,0],"id":18,"left_children":[1,3,5,7,9,11,13,15,17,19,21,23,-1,-1,25,27,29,31,33,35,37,-1,39,41,43,-1,45,47,49,51,53,55,57,59,61,63,-1,65,67,69,-1,71,-1,73,75,-1,-1,-1,-1,-1,-1,-1,-1,-1,-1,-1,-1,-1,-1,-1,-1,-1,-1,-1,-1,-1,-1,-1,-1,-1,-1,-1,-1,-1,-1,-1,-1],"loss_changes":[1.2223791E-2,3.3159938E-2,5.8570642E-2,1.2767763E-2,3.5483688E-1,3.4774814E-2,1.0014392E-2,1.4952002E-2,1.4676827E-1,4.690193E-2,8.136059E-1,2.5452035E-2,0E0,0E0,2.2688508E-4,3.1002386E-2,3.907728E-2,5.4378398E-2,4.4616374E-1,1.4541231E-2,4.7207408E-2,0E0,8.2874596E-2,1.6393563E-2,1.3480075E-2,0E0,1.4763325E-4,2.190075E-2,8.37421E-2,1.3415319E-1,3.0699324E-2,4.4916466E-2,6.2975343E-3,3.2456806E-1,4.2373616E-1,1.3600085E-2,0E0,1.0482321E-1,1.1241417E-3,1.2256853E-2,0E0,9.1932295E-4,0E0,9.803384E-3,1.2013679E-2,0E0,0E0,0E0,0E0,0E0,0E0,0E0,0E0,0E0,0E0,0E0,0E0,0E0,0E0,0E0,0E0,0E0,0E0,0E0,0E0,0E0,0E0,0E0,0E0,0E0,0E0,0E0,0E0,0E0,0E0,0E0,0E0],"parents":[2147483647,0,0,1,1,2,2,3,3,4,4,5,5,6,6,7,7,8,8,9,9,10,10,11,11,14,14,15,15,16,16,17,17,18,18,19,19,20,20,22,22,23,23,24,24,26,26,27,27,28,28,29,29,30,30,31,31,32,32,33,33,34,34,35,35,37,37,38,38,39,39,41,41,43,43,44,44],"right_children":[2,4,6,8,10,12,14,16,18,20,22,24,-1,-1,26,28,30,32,34,36,38,-1,40,42,44,-1,46,48,50,52,54,56,58,60,62,64,-1,66,68,70,-1,72,-1,74,76,-1,-1,-1,-1,-1,-1,-1,-1,-1,-1,-1,-1,-1,-1,-1,-1,-1,-1,-1,-1,-1,-1,-1,-1,-1,-1,-1,-1,-1,-1,-1,-1],"split_conditions":[2.8425314E0,2.3545141E0,5E-1,5E-1,5E-1,5E-1,-1.1117651E0,1.8664966E0,3.2458767E-1,2.5171866E0,5E-1,-8.775889E-1,3.3207253E-2,-1.6918045E-4,5E-1,1.3784791E0,-8.775889E-1,7.0353395E-1,-4.109183E-1,5E-1,5E-1,1.6371639E-1,5.2495044E-1,7.0353395E-1,5E-1,-2.0835193E-2,3.005204E0,7.2778916E-1,5E-1,2.1918416E0,2.1278527E0,-5.7359076E-1,